svm_type c_svc
kernel_type rbf
gamma 0.0001221
nr_class 2
total_sv 1605
rho -40.456
label 1 0
probA -1.25704
probB 0.0214339
nr_sv 791 814
SV
32768 1:-0.083333333 2:-0.11406423 3:0.40767386 4:0.19074074 5:-0.29219601 6:-0.1159618 7:0.056074766 8:-0.041347626 9:0.46691871 10:0.25605901 11:-0.35571688 12:-0.080489375 13:0.077333333 14:0.12586445 15:-0.35272727 16:0.13641488 17:-0.1923775 18:0.23915051 19:0.13609467 20:-0.12 21:0.068925385 22:0.0027946737 23:-0.2037037 24:0.75111054 25:0.22058824 26:-0.0094545455 27:0.022154316 28:-0.0017094017 29:-0.2074724 30:0.88784441 31:0.22522196 32:-0.034920635 33:-0.097883959 34:0.03875 35:-0.2418136 36:0.61464117 37:-0.23863636 38:0.7258348 39:-0.26153118 40:0.3536 41:0.50900164 42:-0.285 43:0.27440173 44:0.4006975 45:-0.30438231 46:0.35175583 47:0.57236842 48:-0.25260809 49:0.084314104 50:0.75419536 51:0.28963145 52:0.42863079 53:0.54133333 54:0.088126362 55:-0.13435843 56:-0.30136986 57:0.81315605 58:0.49674556 59:0.81267055 60:0.29154079 61:0.40373164 62:0.11822002 63:0.91826087 64:0.52093261 65:0.70484928 66:0.48352332 67:0.46700112 68:-0.083078179 69:0.89600713 70:0.6654869 71:0.37789512 72:0.51280531 73:0.10307692 74:-0.33096927 75:0.27007299 76:0.23529412 77:-0.10068966 78:0.055799373 79:0.038617886 80:-0.14068441 81:0.27581699 82:0.22175732 83:-0.1821366 84:0.058663029 85:0.25313808 86:0.20123839 87:0.44058501 88:0.18495935 89:-0.20545278 90:0.090040928 91:-0.073017752 92:-0.13395639 93:-1 94:0.05 95:-0.20489297 96:0.69470968 97:0.034264706 98:0.0069227637 99:0.0703125 100:0.0061538462 101:-0.21355112 102:0.3460309 103:-0.047904192 104:-0.029407851 105:0.022375215 106:-0.0017611835 107:-0.2248731 108:0.28365917 109:0.51231579 110:0.91722628 111:-1 112:0.24288898 113:0.50315951 114:-0.59633333 115:0.48761194 116:0.78887892 117:-0.11111111 118:0.39905405 119:0.53249337 120:-0.081724138 121:0.54687144 122:0.54350441 123:-0.060487038 124:0.48266068 125:0.65500639 126:-0.30350649 127:0.32683065 128:0.14854288 129:-1 130:0.57738139 131:0.73181936 132:0.015384615 133:0.26106092 134:-0.19502578 135:0.68129713 136:0.71686016 137:0.78521794 138:0.12030329 139:0.42223382 140:0.058219178 141:0.85867635 142:0.65900347 143:0.39853906 144:0.19907407 145:-0.18835507 
32768 1:0.44444444 2:-0.45736434 3:0.42446043 4:-0.24259259 5:0.14337568 6:0.16371078 7:0.28598131 8:-0.51914242 9:0.55009452 10:-0.43940991 11:0.20689655 12:0.11526079 13:0.38933333 14:0.04011065 15:0.35636364 16:-0.3416009 17:0.21778584 18:0.2465374 19:-0.31751479 20:0.71636364 21:-0.10565111 22:-0.18033865 23:-0.095740741 24:0.44852894 25:0.032352941 26:0.64596364 27:-0.41604278 28:-0.20034188 29:-0.12737051 30:0.40551053 31:-0.094038775 32:0.41052632 33:-0.40150171 34:-0.11375 35:-0.10327456 36:0.49427651 37:0.54920455 38:0.60281195 39:0.59394465 40:0.592192 41:0.73590835 42:0.39 43:0.28835554 44:0.19695301 45:0.85246877 46:0.75385625 47:0.71223684 48:0.61519697 49:0.63187343 50:0.40828402 51:0.75921376 52:0.54470531 53:0.61866667 54:0.73017429 55:0.79077413 56:0.7114726 57:0.33561931 58:0.3214497 59:-0.16601519 60:0.73766365 61:0.81024216 62:0.74025974 63:0.37675889 64:0.33424098 65:-0.11122761 66:0.73699482 67:0.48153274 68:0.79220249 69:0.52879242 70:0.53524118 71:-0.59438378 72:0.85819809 73:0.29692308 74:-0.42316785 75:0.44087591 76:-0.070208729 77:0.26758621 78:0.19749216 79:0.23373984 80:-0.23954373 81:0.058823529 82:-0.41004184 83:0.25394046 84:0.10504775 85:0.32008368 86:-0.52012384 87:0.36380256 88:-0.49593496 89:0.33398247 90:0.14461119 91:-0.28106509 92:0.66978193 93:0.27622857 94:-0.18493151 95:-0.1417737 96:0.12258065 97:-0.22544118 98:0.34410208 99:-0.24045139 100:-0.17504274 101:-0.050211736 102:0.12546617 103:-0.13473054 104:0.58110446 105:-0.42168675 106:-0.19056006 107:-0.11167513 108:0.086929792 109:0.63157895 110:0.58248175 111:0.61 112:0.52903395 113:0.68290036 114:0.32222222 115:0.73134328 116:0.31300448 117:0.53464912 118:0.72337838 119:0.66100796 120:0.45402299 121:0.73846271 122:0.41238974 123:0.78179279 124:0.77567871 125:0.69006244 126:0.33935065 127:0.80025445 128:0.85179017 129:0.43045267 130:0.23306935 131:-0.019849181 132:0.58253205 133:0.32159679 134:0.64856941 135:0.38069382 136:0.41413966 137:-0.30406401 138:0.66385847 139:0.034446764 140:0.76689498 141:0.45447525 142:0.43286103 143:-0.57162313 144:0.72942387 145:0.32735334 
24125.87258455806 1:0.10416667 2:0.51716501 3:0.15107914 4:-0.43888889 5:0.14882033 6:0.54570259 7:0.052336449 8:0.47320061 9:0.062381853 10:-0.66491043 11:0.17422868 12:0.46426272 13:0.368 14:0.40525588 15:-0.13090909 16:-0.50620068 17:0.19419238 18:0.70267775 19:-0.13609467 20:0.18545455 21:-0.03452735 22:-0.13693901 23:0.074074074 24:0.3133329 25:0.1225 26:0.14763636 27:0.03223835 28:-0.15794872 29:0.018964053 30:0.44246353 31:0.023736184 32:0.078696742 33:-0.095426621 34:-0.08425 35:0.057934509 36:0.49976009 37:0.40909091 38:0.17750439 39:0.49270677 40:0.712 41:0.38134206 42:0.32 43:0.2929603 44:-0.043502203 45:0.66726155 46:0.86675418 47:0.50881579 48:0.32610162 49:0.71387227 50:0.52876128 51:0.96815725 52:0.62864464 53:0.30946667 54:0.47930283 55:0.32078473 56:-0.12071918 57:-0.56920924 58:0.15650888 59:-0.36514492 60:0.39023162 61:0.18761413 62:-0.054048892 63:-0.72126482 64:0.17579986 65:-0.5204893 66:0.44176166 67:0.48931753 68:-0.38354766 69:-1 70:0.31964809 71:-0.82143286 72:0.3492209 73:0.21538462 74:0.5035461 75:0.35766423 76:-0.40417457 77:0.3062069 78:0.48589342 79:0.050813008 80:0.35361217 81:-0.045751634 82:-0.68410042 83:0.2469352 84:0.47748977 85:0.11924686 86:0.34674923 87:-0.1297989 88:-0.76829268 89:0.3164557 90:0.4324693 91:-0.19526627 92:0.15264798 93:0.30857143 94:-0.15924658 95:0.13957187 96:-0.1483871 97:0.0048529412 98:0.10112665 99:-0.019965278 100:-0.15692308 101:0.036902601 102:-0.065530101 103:0.023952096 104:0.048569528 105:-0.0051635112 106:-0.16343783 107:0.015989848 108:0.088159351 109:-0.094736842 110:0.18832117 111:0.405 112:0.75317866 113:0.16167741 114:0.32222222 115:0.42283582 116:0.31838565 117:0.56505848 118:0.88283784 119:0.44827586 120:0.40229885 121:0.48908994 122:0.60825982 123:0.91620843 124:0.90990158 125:0.39065674 126:0.15688312 127:-0.024879842 128:0.073105745 129:0.1090535 130:0.19769077 131:-0.081216954 132:-0.12820513 133:0.20994518 134:-0.25690021 135:-0.93740573 136:0.20291111 137:-0.64876816 138:-0.19393429 139:0.31419624 140:-0.30251142 141:-1 142:0.2147884 143:-0.64145103 144:0.1201989 145:-0.97777194 
32768 1:0.73611111 2:0.79401993 3:0.35971223 4:0.066666667 5:0.049001815 6:0.13233288 7:0.56448598 8:0.63859112 9:0.062381853 10:0.21390938 11:0.052631579 12:0.18094012 13:0.68266667 14:0.58506224 15:0.29818182 16:0.11612176 17:-0.052631579 18:0.3388735 19:-0.053254438 20:0.12 21:0.055993793 22:-0.15074799 23:-1.110223e-16 24:0.37771197 25:0.25485294 26:0.066181818 27:0.03223835 28:-0.17059829 29:-0.028304557 30:0.38735818 31:0.10074289 32:-0.023893066 33:-0.089419795 34:-0.10675 35:0.0047858942 36:0.46685859 37:-0.16477273 38:-0.12478032 39:0.18000473 40:0.854976 41:0.72281506 42:0.7433 43:-0.39077653 44:-0.083883994 45:0.66726155 46:0.93016081 47:0.78947368 48:0.80962267 49:-0.067528458 50:0.42768455 51:0.70909091 52:0.93323637 53:0.4408 54:0.89901961 55:0.45493107 56:0.21660959 57:-0.19174248 58:-0.4295858 59:-0.16955528 60:0.3101712 61:0.14998015 62:0.44595111 63:-0.72126482 64:-0.62882914 65:-0.016164264 66:0.34818653 67:-0.038664475 68:0.32496428 69:-0.23673767 70:-0.7649914 71:0.3550942 72:0.40292231 73:0.63076923 74:0.63120567 75:0.44525547 76:0.18406072 77:0.12 78:0.16865204 79:0.60772358 80:0.46768061 81:0.29411765 82:0.14853556 83:0.089316988 84:0.13233288 85:0.65271967 86:0.62229102 87:0.12248629 88:0.18495935 89:0.16455696 90:0.13233288 91:-0.053254438 92:0.065420561 93:0.44 94:-0.17123288 95:-0.01529052 96:-0.019354839 97:0.13720588 98:0.0014931451 99:0.20789931 100:-0.17401709 101:0.058681186 102:0.058870538 103:0.12170659 104:-0.0081170991 105:0.091222031 106:-0.17858401 107:0.025380711 108:-0.016353129 109:-0.078947368 110:0.15620438 111:0.06 112:0.93275659 113:0.65315632 114:0.71477778 115:-0.30850746 116:0.24878924 117:0.13011696 118:0.98189189 119:0.43302387 120:0.77390805 121:-0.33612104 122:0.41519647 123:0.63917256 124:0.9363234 125:0.3455202 126:0.76181818 127:0.34266327 128:0.50907577 129:0.30452675 130:-0.4333506 131:-0.024009708 132:-0.09775641 133:0.17334569 134:0.58143767 135:-0.32730015 136:-0.54479293 137:-0.051379238 138:-0.051390059 139:0.085247042 140:0.24360731 141:-0.66684686 142:-0.63779675 143:0.21010276 144:-0.034636488 145:0.40666842 
32768 1:0.375 2:0.84939092 3:0.45563549 4:0.19074074 5:-0.47731397 6:-0.94815825 7:0.2953271 8:0.65696784 9:0.54253308 10:0.19494204 11:-0.61887477 12:-0.41661301 13:0.30133333 14:0.77593361 15:0.31636364 16:0.095828636 17:-0.47731397 18:-0.29455217 19:0.14201183 20:-0.44 21:-0.0259925 22:-0.1615979 23:0.074074074 24:0.33908453 25:0.29897059 26:-0.312 27:0.042322383 28:-0.18529915 29:0.018964053 30:0.43922204 31:0.14151114 32:-0.035923141 33:-0.12627986 34:-0.10075 35:0.057934509 36:0.50250189 37:0.40909091 38:-0.11775044 39:0.36655365 40:0.5488 41:0.38134206 42:0.91 43:0.19067885 44:-0.24174009 45:0.50862582 46:0.58844765 47:0.53723684 48:0.52073494 49:0.71387227 50:-0.43001261 51:0.87223587 52:0.54401274 53:0.2772 54:0.65359477 55:0.45546129 56:0.31421233 57:0.59944017 58:0.19792899 59:0.32000885 60:0.75881168 61:0.25478364 62:0.19938885 63:0.59889328 64:0.22345133 65:0.36496287 66:0.63129534 67:0.56249459 68:0.50785875 69:0.51000243 70:0.37627667 71:0.24997 72:0.58602469 73:-0.030769231 74:0.64539007 75:0.43065693 76:0.24098672 77:-0.43862069 78:-0.830721 79:0.31504065 80:0.5513308 81:0.38562092 82:0.20083682 83:-0.54816112 84:-0.75443383 85:0.23221757 86:0.62848297 87:0.55758684 88:0.16666667 89:-0.50340798 90:-0.50068213 91:0.28994083 92:-0.33956386 93:0.32 94:-0.18493151 95:0.13957187 96:-0.096774193 97:0.18132353 98:-0.12963214 99:-0.019965278 100:-0.17401709 101:0.036902601 102:-0.021044219 103:0.083832335 104:0.08502994 105:-0.012048193 106:-0.18351532 107:0.015989848 108:0.082011558 109:0.13684211 110:0.030656934 111:0.325 112:0.58605322 113:0.28512159 114:0.97777778 115:0.31343284 116:-0.26170404 117:0.44809942 118:0.63513514 119:0.52785146 120:0.91574713 121:0.5529537 122:-0.5595429 123:0.77655582 124:0.59852038 125:0.41322501 126:0.40038961 127:0.15465083 128:0.29408826 129:0.86213992 130:0.23913848 131:0.65086244 132:0.45833333 133:0.27526832 134:0.37013447 135:0.39969834 136:0.25142956 137:0.38260686 138:0.42257793 139:0.44676409 140:0.25228311 141:0.41694339 142:0.26733602 143:0.430234 144:0.43381344 145:-0.69712085 
32768 1:0.47222222 2:0.63455149 3:0.023980815 4:-0.43888889 5:-0.57894737 6:0.40927694 7:0.31775701 8:0.20980092 9:0.013232514 10:-0.69020021 11:-0.26134301 12:0.356085 13:0.42933333 14:0.41908714 15:0.036363636 16:-0.93461105 17:-0.39745917 18:0.58448753 19:-0.13609467 20:0.17090909 21:-0.079787922 22:-0.12871938 23:-0.055555556 24:0.31977081 25:0.17279412 26:0.069090909 27:0.081130634 28:-0.15111111 29:0.03962638 30:0.32680713 31:0.062511325 32:-0.053299917 33:0.080682594 34:-0.096 35:0.029722922 36:0.52512167 37:0.51136364 38:0.040421793 39:0.59000237 40:0.7216 41:0.87129296 42:0.505 43:0.33021698 44:0.2551395 45:0.54967281 46:0.86977355 47:0.35394737 48:0.71277314 49:0.71792398 50:0.54408769 51:0.49542998 52:0.87381398 53:0.28826667 54:0.5795207 55:0.621421 56:0.041952055 57:-0.18152554 58:0.17204142 59:-0.12810679 60:0.092749245 61:0.53140135 62:0.36382735 63:-0.22561265 64:0.19724302 65:0.21992136 66:-0.14331606 67:0.3244529 68:0.16350276 69:-0.15153479 70:0.35281626 71:0.16116645 72:0.18509732 73:0.35384615 74:0.30023641 75:0.21167883 76:-0.41555977 77:-0.25241379 78:0.33918495 79:0.33943089 80:0.17363752 81:-0.071895425 82:-0.64016736 83:-0.28196147 84:0.31787176 85:0.37029289 86:0.43653251 87:0.074954296 88:-0.76219512 89:-0.38266796 90:0.31377899 91:-0.29585799 92:0.068535825 93:0.26857143 94:-0.15068493 95:0.25382263 96:-0.13987097 97:0.055147059 98:0.044115651 99:-0.019965278 100:-0.15692308 101:0.070780399 102:-0.065530101 103:0.098802395 104:-0.031536926 105:0.14629948 106:-0.16343783 107:-0.0083756345 108:0.088159351 109:0.65263158 110:0.42583942 111:0.5533 112:0.76759733 113:-0.029807876 114:0.61111111 115:0.46268657 116:0.54080717 117:0.51023392 118:0.85135135 119:0.38992042 120:0.66666667 121:0.40393827 122:0.53548516 123:0.53565506 124:0.87964859 125:0.39908222 126:0.38090909 127:0.52148714 128:0.43746878 129:0.39650206 130:0.17889127 131:0.62260553 132:-0.85785256 133:0.54428229 134:0.16287534 135:-0.31628959 136:0.34500087 137:-0.021899347 138:-0.8505476 139:0.51913709 140:0.063013699 141:-0.18263959 142:0.39945576 143:0.49288102 144:-0.38100137 145:-0.34952306 
32768 1:0.5625 2:0.84939092 3:0.21582734 4:0.41666667 5:-0.47731397 6:0.37517053 7:0.31401869 8:0.65696784 9:0.16446125 10:0.47734457 11:-0.61887477 12:0.42691565 13:0.48266667 14:0.77593361 15:0.46545455 16:0.30101466 17:-0.47731397 18:0.67313019 19:0.094674556 20:-0.44 21:-0.0259925 22:0.81653789 23:0.074074074 24:0.70604519 25:0.26955882 26:-0.312 27:0.042322383 28:0.83350427 29:0.018964053 30:0.38411669 31:0.12031165 32:-0.035923141 33:-0.14675768 34:0.57975 35:0.057934509 36:0.53266159 37:-0.068181818 38:-0.11775044 39:0.41922258 40:-1 41:0.38134206 42:-0.83 43:0.097606921 44:-0.24174009 45:0.57485624 46:-1 47:0.53723684 48:-0.26817875 49:0.28304071 50:-0.43001261 51:0.46181818 52:-0.79638479 53:0.2772 54:-0.26797386 55:0.51484624 56:0.31421233 57:0.56682995 58:0.61538462 59:0.32000885 60:0.66012085 61:-0.21476776 62:0.19938885 63:0.56205534 64:0.56484003 65:0.36496287 66:0.58041451 67:-0.2414151 68:0.50785875 69:0.47064064 70:0.58297098 71:0.24997 72:0.67434086 73:0.36923077 74:0.64539007 75:0.12408759 76:0.47248577 77:-0.43862069 78:0.38557994 79:0.33536585 80:0.5513308 81:0.26797386 82:0.49790795 83:-0.54816112 84:0.41882674 85:0.39958159 86:0.62848297 87:0.51371115 88:0.46544715 89:-0.50340798 90:0.39290587 91:0.20710059 92:-0.33956386 93:0.32571429 94:0.83390411 95:0.13957187 96:0.62580645 97:0.15191176 98:-0.12963214 99:-0.030815972 100:0.8174359 101:0.036902601 102:0.72482685 103:0.074850299 104:0.08502994 105:-0.025817556 106:0.84290243 107:0.015989848 108:-0.022500922 109:-0.53684211 110:0.030656934 111:0.655 112:-1 113:0.28512159 114:-0.95555556 115:0.2138806 116:-0.26170404 117:0.27997076 118:-1 119:0.52785146 120:-0.91574713 121:0.10286627 122:-0.5595429 123:0.42044165 124:-1 125:0.41322501 126:-0.58662338 127:0.61125247 128:0.29408826 129:0.84773663 130:0.65687218 131:0.65086244 132:0.61698718 133:-0.18137596 134:0.37013447 135:0.35746606 136:0.76451222 137:0.38260686 138:0.65240101 139:-0.31280445 140:0.25228311 141:0.36937215 142:0.71004973 143:0.430234 144:0.34962277 145:0.8307809 
32768 1:0.30555556 2:0.29568106 3:0.33573141 4:-0.3962963 5:-0.56079855 6:0.13233288 7:0.10280374 8:0.17917305 9:0.41776938 10:-0.55110643 11:-0.40471869 12:0.18094012 13:0.18933333 14:0.30567082 15:0.30545455 16:-0.70236753 17:-0.49546279 18:0.3388735 19:-0.053254438 20:0.12727273 21:0.094788569 22:-0.15074799 23:-0.055555556 24:0.37771197 25:0.25985294 26:0.060363636 27:0.042322383 28:-0.17059829 29:-0.11321823 30:0.38735818 31:0.10527269 32:-0.044611529 33:-0.12764505 34:-0.10675 35:0.0047858942 36:0.46685859 37:0.125 38:0.31458699 39:0.57423323 40:0.7312 41:0.87561375 42:0.7433 43:-0.037186911 44:0.37867107 45:0.78623835 46:0.81765671 47:0.75657895 48:0.80962267 49:0.41964113 50:0.76467165 51:0.86633907 52:0.81453009 53:0.3208 54:0.89901961 55:0.81336161 56:0.69863014 57:-0.30090973 58:0.097633136 59:0.16247511 60:0.3101712 61:0.83549027 62:0.74694423 63:-0.58102767 64:0.2059224 65:0.36496287 66:0.34818653 67:0.78911859 68:0.65523576 69:0.0042925407 70:0.22701992 71:0.475099 72:0.40292231 73:0.15384615 74:0.27659574 75:0.41605839 76:-0.44212524 77:-0.68 78:0.16865204 79:0.10569106 80:0.1634981 81:0.26797386 82:-0.42677824 83:-0.30472855 84:0.13233288 85:0.13598326 86:0.30959752 87:0.46617916 88:-0.55284553 89:-0.28919182 90:0.13233288 91:-0.053254438 92:0.059190031 93:0.48571429 94:-0.17123288 95:-0.088685015 96:-0.019354839 97:0.14220588 98:-0.013981268 99:0.27300347 100:-0.17401709 101:0.070780399 102:0.058870538 103:0.12679641 104:-0.024617432 105:0.10258176 106:-0.17858401 107:0.050761421 108:-0.016353129 109:0.18947368 110:0.52408759 111:0.37 112:0.77546205 113:0.94038425 114:0.71477778 115:0.069701493 116:0.65363229 117:0.49561404 118:0.77918919 119:0.39986737 120:0.77390805 121:0.049190299 122:0.76343224 123:0.74391202 124:0.82310589 125:0.22726247 126:0.76181818 127:0.82046932 128:0.77152373 129:0.73868313 130:0.23306935 131:0.3660397 132:-0.09775641 133:0.84001235 134:0.83338388 135:-0.44494721 136:0.27586207 137:0.18572331 138:-0.051390059 139:0.83629088 140:0.6130137 141:-0.52984786 142:0.28272497 143:0.43890058 144:-0.034636488 145:-0.68349815 
6235.957432243073 1:0.35416667 2:-0.35769657 3:-0.34292566 4:-0.0037037037 5:-0.51361162 6:0.058663029 7:-0.10280374 8:-0.28024502 9:-0.58034026 10:0.1886196 11:-0.51905626 12:0.062459755 13:0.013333333 14:-0.031811895 15:-0.75272727 16:0.14768884 17:-0.27586207 18:0.34072022 19:-0.14201183 20:0.62181818 21:0.27583085 22:0.068551702 23:-0.105 24:0.47209168 25:0.083382353 26:-0.18661818 27:-0.17738732 28:-0.048547009 29:-0.18397962 30:0.48136143 31:0.037325602 32:-0.037259816 33:-0.034812287 34:0.037 35:-0.20403023 36:0.56515183 37:0.48295455 38:0.24780316 39:-0.15382796 40:0.2448 41:0.67489362 42:0.34 43:0.54412893 44:0.36600587 45:0.32639302 46:0.54867082 47:0.60197368 48:0.47921316 49:0.70904881 50:0.57318848 51:0.27665848 52:0.42863079 53:0.49733333 54:0.70119826 55:0.88016967 56:0.34931507 57:0.12036389 58:0.69792899 59:0.59112029 60:0.43333333 61:0.79039301 62:0.27387319 63:-0.070513834 64:0.52076242 65:0.65976409 66:0.3946114 67:0.64311046 68:0.37742396 69:-0.036041144 70:0.60117302 71:0.4926197 72:0.58268184 73:-0.015384615 74:0.28132388 75:-0.083211679 76:0.041745731 77:-0.31034483 78:0.053291536 79:-0.26422764 80:-0.41951838 81:-0.49542484 82:0.056485356 83:-0.44833625 84:0.092769441 85:0.010460251 86:0.13312694 87:-0.68921389 88:0.052845529 89:-0.25024343 90:0.22373806 91:-0.12816568 92:-0.13395639 93:0.34 94:0.05479452 95:-0.15400612 96:0.16774194 97:-0.025735294 98:0.4746844 99:0.32725694 100:-0.0044444444 101:-0.16321839 102:0.25066596 103:-0.017964072 104:-0.11669993 105:-0.035111876 106:-0.026417753 107:-0.086294416 108:0.078814705 109:0.65610526 110:0.30510949 111:0.395 112:0.27474112 113:0.68085785 114:0.36111111 115:0.78731343 116:0.27174888 117:0.11549708 118:0.61743243 119:0.71710875 120:0.48965517 121:0.69497453 122:0.61226945 123:0.21253382 124:0.54752626 125:0.36357481 126:0.49935065 127:0.81665253 128:0.22298085 129:0.19609054 130:0.73947154 131:0.64219468 132:-0.025961538 133:0.74550228 134:0.28055808 135:-0.19969834 136:0.59539075 137:0.67635292 138:0.11171019 139:0.66701461 140:0.35205479 141:-0.13769403 142:0.67382941 143:0.78011638 144:0.31052812 145:0.57407894 
32768 1:-0.35138889 2:0.29568106 3:0.36690647 4:0.37407407 5:0.74228675 6:0.38199181 7:-0.51775701 8:0.17917305 9:0.42533081 10:0.43308746 11:0.66243194 12:0.43206697 13:-0.43466667 14:0.30567082 15:0.23272727 16:0.37993236 17:0.41923775 18:0.68605725 19:0.70414201 20:-0.22181818 21:-0.09918531 22:-0.24149268 23:-0.55555556 24:0.49359428 25:0.59117647 26:-0.19272727 27:-0.29717341 28:-0.26495726 29:-0.67930937 30:0.37439222 31:0.50389563 32:-0.086382623 33:-0.26962457 34:-0.15975 35:-0.43073048 36:0.47138255 37:-0.34465909 38:0.62390158 39:0.46779153 40:0.648896 41:0.1904419 42:0.39 43:-0.37026442 44:0.63748164 45:0.74657942 46:0.74361667 47:0.22368421 48:0.58613173 49:-0.30136986 50:0.72839267 51:0.75764128 52:0.6715839 53:0.30666667 54:0.73017429 55:0.20858961 56:0.7765411 57:0.5913226 58:-0.032248521 59:0.6504167 60:0.59566969 61:-0.32973402 62:0.78877005 63:0.66102767 64:0.017699115 65:0.87837484 66:0.59108808 67:-0.062883834 68:0.83098592 69:0.75281445 70:0.16958236 71:0.84447378 72:0.70625977 73:-0.53538462 74:0.27659574 75:0.39124088 76:0.40417457 77:0.74758621 78:0.39811912 79:-0.74186992 80:0.1634981 81:0.22875817 82:0.4832636 83:0.48861646 84:0.4324693 85:-0.23221757 86:0.30959752 87:0.43327239 88:0.43495935 89:0.55014606 90:0.40109141 91:0.59763314 92:-0.20249221 93:0.26857143 94:-0.24657534 95:-0.74923547 96:0.21290323 97:0.875 98:-0.066377087 99:-0.18272569 100:-0.2365812 101:-0.33793103 102:0.098827917 103:0.54491018 104:-0.15928144 105:-0.28743546 106:-0.25466714 107:-0.44162437 108:0.12627567 109:-0.29210526 110:0.80145985 111:0.58 112:0.82002884 113:0.15108189 114:0.32222222 115:-0.54477612 116:0.63605381 117:0.26652047 118:0.76121622 119:0.31923077 120:0.45689655 121:-0.54641527 122:0.78608661 123:0.60199005 124:0.73604597 125:0.33799744 126:0.37831169 127:-0.12496466 128:0.77585346 129:0.60874486 130:-0.21278958 131:0.939499 132:0.35657051 133:0.013975755 134:0.87908199 135:0.52895928 136:0.050771097 137:0.90755949 138:0.42628475 139:0.16492693 140:0.87100457 141:0.64985713 142:0.089612461 143:0.91283893 144:0.48765432 145:0.24684227 
32768 1:0.125 2:0.31339978 3:0.016786571 4:0.024074074 5:0.041742287 6:0.34515689 7:-0.14018692 8:0.38437979 9:0.25897921 10:0.11064278 11:0.041742287 12:0.41661301 13:0.62133333 14:0.49100968 15:0.25818182 16:0.066516347 17:0.041742287 18:0.65466297 19:-0.23668639 20:-0.86181818 21:0.0086641666 22:-0.062962354 23:0.60851852 24:0.71673212 25:-0.051470588 26:-0.76407273 27:-0.29381207 28:-0.074188034 29:0.90178319 30:0.62398703 31:-0.1424171 32:-0.88070175 33:-0.23549488 34:-0.02875 35:0.75969773 36:0.71910343 37:0.47727273 38:0.85588752 39:0.50847591 40:0.726976 41:-0.67685761 42:0.0633 43:0.35812461 44:0.59948605 45:0.8326393 46:0.842468 47:-0.68513158 48:0.21191675 49:0.038587691 50:0.83373751 51:0.93120393 52:0.71064478 53:-0.7076 54:0.24836601 55:0.88016967 56:0.70462329 57:0.82953114 58:0.083727811 59:0.37134007 60:0.76364552 61:0.89472013 62:0.60026738 63:0.66988142 64:0.41899251 65:0.4689384 66:0.77720207 67:0.82146873 68:0.74913248 69:0.75589212 70:0.60885833 71:0.27445098 72:0.75295196 73:-0.046153846 74:0.3286052 75:0.14890511 76:0.075901328 77:0.11172414 78:0.46081505 79:0.20731707 80:0.34347275 81:0.10588235 82:0.016736402 83:0.087565674 84:0.34515689 85:0.57949791 86:0.87616099 87:0.41499086 88:0.077235772 89:0.065238559 90:0.34515689 91:-0.23668639 92:-0.80373832 93:0.28765714 94:-0.070890411 95:0.78862385 96:0.74193548 97:-0.20102941 98:-0.66933623 99:0.012586806 100:-0.065641026 101:0.76914701 102:0.76025573 103:-0.21257485 104:-0.88529607 105:-0.20860585 106:-0.076435365 107:0.61167513 108:0.63113242 109:0.51578947 110:0.83459854 111:0.6133 112:0.96513304 113:-0.63707155 114:-0.17777778 115:0.28358209 116:0.76627803 117:0.34210526 118:0.87162162 119:-0.65212202 120:-0.0077011494 121:0.15760663 122:0.72293504 123:0.80797766 124:0.8175573 125:-0.53614684 126:-0.1212987 127:0.90952785 128:0.69891757 129:0.85977366 130:0.013840574 131:0.38389529 132:0.52644231 133:0.89761408 134:0.85785057 135:0.56968326 136:0.35730376 137:0.36260265 138:0.7073294 139:0.6270007 140:0.73082192 141:0.67395166 142:0.5302618 143:0.26135942 144:0.73748285 145:0.65884893 
9750.721754212083 1:-0.22222222 2:-0.45736434 3:0.67146283 4:0.17592593 5:-0.66969147 6:-0.9686221 7:-0.42429907 8:-0.51914242 9:-0.081285444 10:0.16754478 11:-0.61524501 12:-0.65872505 13:-0.32266667 14:-0.037344398 15:-0.85090909 16:0.18602029 17:-0.56624319 18:-0.27239151 19:0.4260355 20:0.71636364 21:-0.38368033 22:-0.1615979 23:-0.20981481 24:0.33908453 25:0.47426471 26:0.64596364 27:0.39373568 28:-0.19008547 29:-0.26691197 30:0.31604538 31:0.24116688 32:0.36507937 33:0.74061433 34:-0.10625 35:-0.28060453 36:0.40105559 37:0.073863636 38:0.60281195 39:0.57423323 40:0.7888 41:0.75345336 42:1 43:0.12439824 44:0.19695301 45:0.33353163 46:0.93199869 47:0.73776316 48:0.88924067 49:0.41809763 50:0.42361044 51:0.45945946 52:0.74721241 53:0.73853333 54:0.7037037 55:0.58218452 56:0.7114726 57:0.82295311 58:-0.4989645 59:0.56737223 60:0.85800604 61:0.39849146 62:0.74025974 63:0.66592885 64:-0.47123894 65:0.79204893 66:0.8388601 67:0.41250757 68:0.78669116 69:0.77565401 70:-0.5862069 71:0.73406936 72:0.85302205 73:-0.68153846 74:-0.42316785 75:0.62043796 76:0.17836812 77:-0.38758621 78:-0.84326019 79:-0.92479675 80:-0.23954373 81:0.37254902 82:0.20920502 83:-0.57443082 84:-0.65893588 85:-0.4497908 86:-0.39009288 87:0.57221207 88:0.17479675 89:-0.47419669 90:-0.65893588 91:0.49502959 92:0.66978193 93:0.13142857 94:-0.17910959 95:-0.22152905 96:-0.096774193 97:0.64705882 98:0.34410208 99:0.045138889 100:-0.17025641 101:-0.22855414 102:-0.083111348 103:0.45359281 104:0.46027944 105:0.18760757 106:-0.17823177 107:-0.19543147 108:-0.14742407 109:0.30178947 110:0.58248175 111:0.685 112:0.87993184 113:0.74340971 114:1 115:0.12313433 116:0.31300448 117:0.23611111 118:0.91067568 119:0.76790451 120:0.7854023 121:0.33551281 122:0.35705694 123:0.27380641 124:0.92482991 125:0.69908975 126:0.77480519 127:0.572095 128:0.85179017 129:0.76080247 130:-0.4027089 131:0.70442923 132:0.77403846 133:0.37672767 134:0.64856941 135:0.73408748 136:-0.38745451 137:0.76710886 138:0.56478517 139:0.54697286 140:0.7109589 141:0.67796741 142:-0.50248663 143:0.90590566 144:0.59242112 145:0.049706835 
22372.24626281238 1:-0.44861111 2:-0.45736434 3:0.57553957 4:0.1962963 5:-0.83121597 6:-0.30695771 7:-0.46915888 8:-0.51914242 9:-0.24007561 10:0.2223393 11:-0.76406534 12:-0.29942048 13:-0.424 14:0.04011065 15:-0.47272727 16:0.22660654 17:-0.51905626 18:-0.20406279 19:0.49502959 20:0.71636364 21:0.010733221 22:-0.18033865 23:-0.22222222 24:0.48071847 25:0.47647059 26:0.64596364 27:0.59572193 28:-0.20034188 29:-0.27936598 30:0.38735818 31:0.38159087 32:0.41052632 33:0.71112628 34:-0.11375 35:-0.19143577 36:0.48056755 37:0.24625 38:0.60281195 39:0.22731215 40:0.753088 41:0.69662848 42:0.39 43:0.065094537 44:0.19695301 45:0.28395796 46:0.888021 47:0.68092105 48:0.55914258 49:0.45089716 50:0.40828402 51:0.27115479 52:0.70995221 53:0.61733333 54:0.59945534 55:0.62704136 56:0.7114726 57:0.59622113 58:-0.4454142 59:0.60896821 60:0.90785498 61:0.29670504 62:0.74025974 63:0.66592885 64:-0.44230769 65:0.84150284 66:0.92373057 67:0.56768446 68:0.79220249 69:0.75654005 70:-0.47133178 71:0.76359054 72:0.99471613 73:-0.62615385 74:-0.42316785 75:0.5620438 76:0.11195446 77:-0.64551724 78:-0.23510972 79:-0.81504065 80:-0.23954373 81:0.44575163 82:0.23012552 83:-0.53415061 84:-0.33424284 85:-0.33263598 86:-0.52012384 87:-0.089579525 88:0.21341463 89:-0.45666991 90:-0.19645293 91:0.42011834 92:0.66978193 93:0.23428571 94:-0.18493151 95:-0.3088685 96:0.18709677 97:0.65191176 98:0.34410208 99:0.38151042 100:-0.17504274 101:-0.12813067 102:0.11214704 103:0.40718563 104:0.58110446 105:0.7383821 106:-0.19056006 107:-0.20050761 108:0.1164392 109:0.25526316 110:0.58248175 111:0.4767 112:0.91178398 113:0.64460331 114:0.32222222 115:0.23134328 116:0.31300448 117:-0.028216374 118:0.8922973 119:0.64628647 120:0.45689655 121:0.24427887 122:0.41238974 123:0.18303221 124:0.89100997 125:0.68855789 126:0.22506494 127:0.43271134 128:0.85179017 129:0.60874486 130:-0.4333506 131:0.89078617 132:0.85336538 133:0.56142383 134:0.64856941 135:0.53589744 136:-0.44394386 137:0.86818278 138:0.94860994 139:0.50521921 140:0.76689498 141:0.65418179 142:-0.4694567 143:0.8293921 144:1 145:0.049706835 
32768 1:0.38888889 2:0.40642303 3:0.3764988 4:0.42777778 5:0.061705989 6:-0.36152797 7:0.3271028 8:0.55895865 9:0.41776938 10:0.46891465 11:0.061705989 12:-0.027688345 13:0.264 14:0.64868603 15:0.12 16:0.31228861 17:0.061705989 18:0.08956602 19:0.17751479 20:0.22909091 21:-0.03452735 22:-0.20269604 23:0.069444444 24:0.33908453 25:0.32352941 26:0.18836364 27:0.03223835 28:-0.22632479 29:0.0093405038 30:0.43598055 31:0.1565501 32:0.097744361 33:-0.095426621 34:-0.1315 35:0.057934509 36:0.49976009 37:0.40909091 38:0.61335677 39:0.024994087 40:0.0528 41:0.21440262 42:0.695 43:0.20923742 44:0.31993392 45:0.079119572 46:0.079094191 47:0.28723684 48:0.52333005 49:0.71387227 50:0.6257639 51:0.45199017 52:0.24551562 53:0.1648 54:0.70152505 55:0.66436903 56:-0.59160959 57:0.25794262 58:0.70828402 59:0.34065934 60:0.16364552 61:0.35911076 62:-0.070473644 63:0.21312253 64:0.78437713 65:0.39764089 66:0.25202073 67:0.68013148 68:-0.26474791 69:-0.04252045 70:0.90514713 71:0.27901116 72:0.1427185 73:0.18461538 74:0.56973995 75:0.38686131 76:0.48387097 77:0.12689655 78:-0.30407524 79:0.3495935 80:0.46768061 81:0.29411765 82:0.4790795 83:0.10683012 84:-0.28649386 85:0.17782427 86:0.6749226 87:0.42595978 88:0.43902439 89:0.16650438 90:-0.088676671 91:0.34911243 92:0.19626168 93:0.30857143 94:-0.22773973 95:0.13957187 96:-0.096774193 97:0.20588235 98:0.12365956 99:-0.019965278 100:-0.22529915 101:0.027223231 102:-0.021044219 103:0.089820359 104:0.05176314 105:-0.0051635112 106:-0.23388517 107:0.012690355 108:0.075863765 109:0.094736842 110:0.47737226 111:0.105 112:0.078122952 113:0.050998915 114:0.74444444 115:0.33328358 116:0.53650224 117:0.13377193 118:0.11256757 119:0.24668435 120:0.83528736 121:0.5438303 122:0.68323978 123:0.40298507 124:0.086993857 125:0.20078237 126:0.40363636 127:0.43313543 128:0.058784346 129:0.71707819 130:0.74983347 131:0.66715784 132:-0.48878205 133:0.37672767 134:-0.19543019 135:-0.046003017 136:0.83711662 137:0.41798273 138:-0.57320977 139:0.57376479 140:-0.22648402 141:-0.0871882 142:0.88289387 143:0.44756717 144:-0.19375857 145:-0.56553193 
32768 1:0.76388889 2:0.5393134 3:0.34772182 4:-0.18518519 5:-0.43375681 6:-0.61391542 7:0.63925234 8:0.2618683 9:0.61814745 10:-0.28345627 11:-0.17059891 12:-0.28783001 13:0.58666667 14:0.34993084 15:0.28 16:-0.41600902 17:-0.32667877 18:-0.085872576 19:-0.11633136 20:0.17818182 21:-0.015129963 22:-0.12871938 23:-0.055555556 24:0.33908453 25:0.17647059 26:0.069090909 27:-0.21222307 28:-0.15111111 29:0.045287291 30:0.34418152 31:0.062511325 32:-0.053299917 33:-0.0055972696 34:-0.096 35:0.032745592 36:0.51826719 37:-0.18181818 38:0.12478032 39:0.045967042 40:0.8048 41:0.6792144 42:0.885 43:-0.5209656 44:0.32544053 45:0.37517351 46:0.92674762 47:0.16447368 48:0.80619712 49:-0.31005209 50:0.62906198 51:0.46280098 52:0.96093912 53:0.14333333 54:0.4869281 55:0.80063627 56:-0.29537671 57:0.32554234 58:-0.2545858 59:0.16247511 60:0.26283988 61:0.7999206 62:0.11306341 63:0.37976285 64:-0.46511232 65:0.42158148 66:0.37720207 67:0.78029582 68:-0.13798734 69:0.49072649 70:-0.43573668 71:0.27517101 72:0.54580256 73:0.79230769 74:0.34042553 75:0.31824818 76:-0.14231499 77:-0.21793103 78:-0.28777429 79:0.69105691 80:0.14828897 81:0.28104575 82:-0.23221757 83:-0.17338003 84:-0.36425648 85:0.68410042 86:0.35913313 87:0.65996344 88:-0.29471545 89:-0.33398247 90:-0.18144611 91:-0.24260355 92:0.068535825 93:0.22285714 94:-0.15068493 95:0.26605505 96:-0.10529032 97:0.058823529 98:0.044115651 99:0.088541667 100:-0.15692308 101:0.076830006 102:-0.029834843 103:0.089820359 104:-0.031536926 105:-0.18416523 106:-0.16343783 107:-0.0083756345 108:0.075863765 109:0.010526316 110:0.48175182 111:0.4067 112:0.89343295 113:-0.20852748 114:0.71111111 115:-0.44776119 116:0.61506726 117:0.0058479532 118:1 119:0.19761273 120:0.77011494 121:-0.52360678 122:0.62309543 123:0.38203718 124:0.96274523 125:0.24351162 126:0.27051948 127:0.76039016 128:0.21865112 129:0.55082305 130:-0.33757679 131:0.62260553 132:-0.052884615 133:0.80542043 134:-0.12162572 135:0.23016591 136:-0.27256975 137:0.18551274 138:-0.0042122999 139:0.8131524 140:-0.27420091 141:0.40875743 142:-0.33226987 143:0.59737526 144:0.1925583 145:-0.56897407 
15752.78592631685 1:0.29166667 2:0.79401993 3:0.21582734 4:-0.3037037 5:-0.56079855 6:0.33697135 7:-0.03364486 8:0.63859112 9:0.16446125 10:-0.51317176 11:-0.40471869 12:0.37411462 13:0.042666667 14:0.58506224 15:0.036363636 16:-0.66178129 17:-0.49546279 18:0.61588181 19:-0.053254438 20:0.12 21:0.068925385 22:-0.15074799 23:-0.055555556 24:0.70385631 25:0.27941176 26:0.066181818 27:0.03223835 28:-0.18051282 29:-0.11321823 30:0.71578606 31:0.11433231 32:-0.023893066 33:-0.10580205 34:-0.114 35:0.0047858942 36:0.81410652 37:0.51136364 38:-0.12478032 39:0.57423323 40:0.547776 41:0.87561375 42:-0.4967 43:0.46040606 44:-0.083883994 45:0.8326393 46:0.68257302 47:0.75657895 48:-0.47755229 49:0.7476365 50:0.42768455 51:0.89385749 52:0.67199945 53:0.3208 54:-0.45174292 55:0.51537646 56:0.21660959 57:0.67459762 58:0.19467456 59:0.16247511 60:0.78751259 61:0.45645097 62:0.44595111 63:0.25754941 64:0.39397549 65:0.36496287 66:0.83937824 67:0.63169276 68:0.32496428 69:0.51972139 70:0.45050056 71:0.475099 72:0.91405618 73:0.13846154 74:0.63120567 75:0.27007299 76:-0.42314991 77:-0.68 78:0.35673981 79:-0.042682927 80:0.46768061 81:0.1372549 82:-0.41004184 83:-0.30472855 84:0.33697135 85:-0.016736402 86:0.62229102 87:0.22120658 88:-0.51626016 89:-0.28919182 90:0.33697135 91:-0.053254438 92:0.065420561 93:0.45142857 94:-0.17808219 95:-0.088685015 96:0.63432258 97:0.16176471 98:0.0014931451 99:0.22960069 100:-0.17948718 101:0.070780399 102:0.73361747 103:0.14670659 104:-0.0081170991 105:0.091222031 106:-0.18879887 107:0.050761421 108:0.60654125 109:0.54736842 110:0.15620438 111:0.31 112:0.58670861 113:0.94038425 114:-0.663 115:0.6019403 116:0.24878924 117:0.49561404 118:0.58554054 119:0.39986737 120:-0.65137931 121:0.59142401 122:0.41519647 123:0.78476041 124:0.6871656 125:0.22726247 126:-0.84857143 127:0.42324003 128:0.50907577 129:0.94135802 130:0.34971505 131:0.3660397 132:0.66185897 133:0.47139217 134:0.58143767 135:0.60633484 136:0.44255762 137:0.18572331 138:0.74726201 139:0.42101601 140:0.24360731 141:0.28936597 142:0.4901004 143:0.43890058 144:0.77812071 145:0.058749745 
32768 1:0.63888889 2:0.58361019 3:0.35251799 4:0.21296296 5:0.061705989 6:0.3478854 7:0.27663551 8:0.62633997 9:0.37996219 10:0.30453109 11:0.061705989 12:0.31358661 13:0.496 14:0.76763485 15:0.04 16:0.26042841 17:0.061705989 18:0.56602031 19:0.088757396 20:-0.018181818 21:-0.03452735 22:-0.13693901 23:0.069444444 24:0.3133329 25:0.26470588 26:-0.0036363636 27:0.03223835 28:-0.15794872 29:0.0093405038 30:0.44246353 31:0.11741257 32:0.040601504 33:-0.095426621 34:-0.08425 35:0.057934509 36:0.49976009 37:-0.13636364 38:0.61335677 39:0.39809193 40:0.712 41:0.21440262 42:-0.005 43:0.069699295 44:0.36031571 45:0.54828475 46:0.78798819 47:0.28723684 48:0.16001453 49:0.20586533 50:0.60093123 51:0.90899263 52:0.66105686 53:0.1648 54:0.27015251 55:0.72375398 56:0.77140411 57:-0.29363191 58:-0.71775148 59:0.34065934 60:0.91490433 61:0.098054784 62:0.50553858 63:-0.40996047 64:-0.82998639 65:0.39764089 66:0.71160622 67:0.099385866 68:0.58562972 69:-0.68089414 70:-0.87561938 71:0.27901116 72:0.69838788 73:0.56923077 74:0.62174941 75:0.41605839 76:0.26375712 77:0.12689655 78:0.38557994 79:0.29471545 80:0.56907478 81:0.22875817 82:0.25732218 83:0.10683012 84:0.37244202 85:0.4623431 86:0.68111455 87:0.30164534 88:0.27439024 89:0.16650438 90:0.2728513 91:0.19526627 92:-0.0093457944 93:0.30857143 94:-0.15924658 95:0.13957187 96:-0.1483871 97:0.14705882 98:0.024026062 99:-0.019965278 100:-0.15692308 101:0.027223231 102:-0.074320725 103:0.068862275 104:0.0584165 105:-0.0051635112 106:-0.16343783 107:0.012690355 108:0.088159351 109:-0.6 110:0.50948905 111:0.345 112:0.75317866 113:0.050998915 114:-0.033333333 115:0.18402985 116:0.53955157 117:0.47733918 118:0.86486486 119:0.24668435 120:0.030689655 121:0.048125903 122:0.63311949 123:0.81146897 124:0.83816633 125:0.20078237 126:-0.050909091 127:0.88973707 128:0.56103247 129:0.3117284 130:-0.67715195 131:0.66715784 132:0.79647436 133:0.12284766 134:0.55009605 135:-0.64057315 136:-0.82117484 137:0.41798273 138:0.71524853 139:0.029923452 140:0.40479452 141:-0.6960383 142:-0.89434175 143:0.44756717 144:0.56670096 145:-0.082290482 
32768 1:-0.70833333 2:0.29568106 3:0.45563549 4:0.19074074 5:0.11615245 6:0.14324693 7:-0.20560748 8:0.17917305 9:0.68241966 10:0.25605901 11:-0.079854809 12:0.27752737 13:-0.21866667 14:0.30567082 15:0.014545455 16:0.13641488 17:-0.043557169 18:0.47553093 19:-0.088757396 20:-0.13454545 21:0.055993793 22:0.0027946737 23:-0.19444444 24:0.27470547 25:0.16911765 26:-0.0094545455 27:0.011764706 28:-0.0017094017 29:-0.1887914 30:0.23176661 31:0.02826599 32:-0.040601504 33:-0.10197952 34:0.03875 35:-0.22921914 36:0.46535061 37:0.63636364 38:0.7258348 39:0.085389892 40:0.3536 41:0.52864157 42:0.575 43:0.42789367 44:0.51450073 45:0.12532223 46:0.35175583 47:0.68644737 48:0.64011003 49:0.9332433 50:0.79299641 51:0.47203931 52:0.42863079 53:0.67333333 54:0.60860566 55:0.32873807 56:0.42123288 57:0.083974808 58:0.49674556 59:0.23150675 60:0.56747231 61:0.48741564 62:0.60141329 63:0.11667984 64:0.52093261 65:0.2214941 66:0.77492228 67:0.34815327 68:0.49091651 69:0.0034826274 70:0.6654869 71:-0.39877595 72:0.70140724 73:-0.18461538 74:0.27659574 75:0.27007299 76:0.23529412 77:0.095172414 78:0.32664577 79:-0.34146341 80:0.1634981 81:0.3124183 82:0.22175732 83:0.066549912 84:0.23328786 85:-0.089958159 86:0.30959752 87:0.59780622 88:0.18495935 89:0.028237585 90:0.27694407 91:-0.049349112 92:-0.14423676 93:-1 94:0.05 95:-0.18654434 96:-0.20851613 97:0.063676471 98:0.0069227637 99:0.055989583 100:0.0061538462 101:-0.1954023 102:0.05594033 103:0.05988024 104:-0.040053227 105:0.013769363 106:-0.0017611835 107:-0.21040609 108:-0.033566949 109:0.45263158 110:0.76642336 111:-1 112:0.24288898 113:0.665922 114:0.35922222 115:0.40298507 116:0.72071749 117:0.21052632 118:0.39905405 119:0.70159151 120:0.46747126 121:0.4465141 122:0.63171612 123:0.31919351 124:0.48266068 125:0.81629429 126:0.36662338 127:0.62496466 128:0.38218152 129:-1 130:0.57738139 131:0.35390483 132:0.47323718 133:0.58675006 134:0.3167526 135:-0.12564103 136:0.71686016 137:0.32617393 138:0.41499579 139:0.5295755 140:0.52694064 141:0.053981002 142:0.65900347 143:-0.32796831 144:0.45438957 145:-0.11219043 
32768 1:0.5625 2:0.42857143 3:0.55155875 4:0.41666667 5:0.36116152 6:-0.81855389 7:0.31401869 8:0.44257274 9:0.69376181 10:0.47734457 11:0.5154265 12:-0.33290406 13:0.48266667 14:0.38589212 15:0.34545455 16:0.30101466 17:0.26678766 18:-0.23545706 19:0.094674556 20:0.18545455 21:-0.0259925 22:0.81653789 23:0.125 24:0.33908453 25:0.26955882 26:0.15345455 27:0.042322383 28:0.83350427 29:-0.10840645 30:0.43922204 31:0.12031165 32:0.083375104 33:-0.098976109 34:0.57975 35:0.20176322 36:0.50250189 37:-0.068181818 38:0.26186292 39:-0.20113538 40:-1 41:-0.050736497 42:0.93 43:0.097606921 44:0.022577092 45:-0.20523498 46:-1 47:-0.068026316 48:0.52333005 49:0.28304071 50:0.57881463 51:0.16461916 52:-0.79638479 53:-0.0676 54:0.65141612 55:0.51484624 56:-0.45804795 57:0.47487754 58:0.61538462 59:0.48565528 60:0.56042296 61:-0.21476776 62:-0.4302903 63:0.45818182 64:0.56484003 65:0.62691131 66:0.52932642 67:-0.2414151 68:-0.78567054 69:0.25115413 70:0.58297098 71:0.48085923 72:0.45856473 73:0.36923077 74:0.47990544 75:0.42335766 76:0.47248577 77:0.35172414 78:-0.73040752 79:0.33536585 80:0.25982256 81:0.5503268 82:0.49790795 83:0.52714536 84:-0.67257844 85:0.39958159 86:0.37151703 87:0.83546618 88:0.46544715 89:0.47614411 90:-0.41200546 91:0.20710059 92:0.1588785 93:0.31428571 94:0.83390411 95:0.37614679 96:-0.096774193 97:0.15191176 98:0.10547034 99:-0.0091145833 100:0.8174359 101:-0.0066545675 102:-0.021044219 103:0.074850299 104:0.048569528 105:0.0017211704 106:0.84290243 107:0.057106599 108:0.082011558 109:-0.53684211 110:0.24087591 111:-0.035 112:-1 113:-0.11916768 114:1 115:0.2138806 116:0.39013453 117:-0.078216374 118:-1 119:-0.074270557 120:0.92724138 121:0.10286627 122:0.66579791 123:0.14811905 124:-1 125:-0.10584518 126:0.40363636 127:0.61125247 128:-0.2549542 129:0.85493827 130:0.65687218 131:0.78035885 132:0.14262821 133:-0.18137596 134:-0.65524214 135:0.20361991 136:0.76451222 137:0.6664561 138:0.090648694 139:-0.31280445 140:-0.7522831 141:0.17816048 142:0.71004973 143:0.56889934 144:0.26508916 145:-0.82544266 
32768 1:-0.55555556 2:0.58361019 3:0.35971223 4:-0.41111111 5:-0.58257713 6:0.18417462 7:-0.031775701 8:0.5957121 9:0.25141777 10:-0.1317176 11:-0.22504537 12:0.29555699 13:-0.27733333 14:0.66528354 15:0.12 16:-0.24013529 17:-0.18511797 18:0.52908587 19:-0.12426036 20:-0.17818182 21:0.0042674253 22:-0.062962354 23:0.74074074 24:0.30045709 25:0.15808824 26:-0.026909091 27:0.011764706 28:-0.057094017 29:0.74073026 30:0.26547812 31:-0.0034426527 32:-0.06299081 33:-0.020068259 34:0.018 35:0.65994962 36:0.47138255 37:0.84090909 38:0.64147627 39:0.44808011 40:0.349376 41:0.063829787 42:0.865 43:0.0023023791 44:0.4924743 45:0.58139996 46:0.20249426 47:-0.0065789474 48:0.8290341 49:0.52344202 50:0.75109128 51:0.66584767 52:0.21975206 53:0.0066666667 54:0.71753813 55:0.29798515 56:-0.77226027 57:0.59622113 58:0.67721893 59:0.91739804 60:0.070996979 61:0.50917031 62:-0.006302521 63:0.69533597 64:0.67665078 65:0.97570992 66:0.16476684 67:0.37219964 68:-0.11737089 69:0.59633919 70:0.85519264 71:0.94911796 72:0.34868173 73:0.0046153846 74:0.53664303 75:0.27007299 76:-0.26375712 77:-0.25655172 78:0.31034483 79:-0.091463415 80:0.43219265 81:0.24183007 82:-0.20711297 83:-0.38003503 84:0.2728513 85:0.081589958 86:0.69040248 87:0.2833638 88:-0.19308943 89:-0.065238559 90:0.29331514 91:-0.045325444 92:-0.19626168 93:-1 94:0.044863014 95:0.74311927 96:-0.16567742 97:0.068676471 98:-0.009366092 99:0.041666667 100:-0.045128205 101:0.72413793 102:0.067661161 103:0.074850299 104:-0.056021291 105:0.039586919 106:-0.059175766 107:0.58375635 108:-0.021271364 109:0.18947368 110:0.6740146 111:-1 112:0.15493512 113:0.1010404 114:0.68144444 115:0.029850746 116:0.64896861 117:0.54678363 118:0.27608108 119:0.11472149 120:0.58241379 121:-0.067437087 122:0.60565357 123:0.72069477 124:0.3193738 125:-0.052132701 126:0.52116883 127:0.63768731 128:-0.28226478 129:-1 130:0.68455333 131:0.78729306 132:-0.25641026 133:0.6006486 134:-0.3266606 135:0.42639517 136:0.8582568 137:0.85260055 138:-0.13614153 139:0.55845511 140:0.11872146 141:0.61927562 142:0.83184761 143:0.87198217 144:-0.11556927 145:-0.14249876 
32768 1:0.68055556 2:0.42857143 3:0.39088729 4:-0.027777778 5:-0.35027223 6:0.25238745 7:0 8:0.34150077 9:-0.26275992 10:-0.51317176 11:-0.46642468 12:0.3818416 13:0.13066667 14:0.34993084 15:-0.14545455 16:-0.66178129 17:-0.46642468 18:0.34441367 19:0.19526627 20:0.18545455 21:-0.0259925 22:-0.14515864 23:-0.061666667 24:0.7124831 25:0.28676471 26:0.083636364 27:-0.036516425 28:-0.17538462 29:-0.0082083215 30:0.73095624 31:0.12520384 32:0.047284879 33:-0.16505119 34:-0.11025 35:-0.050125945 36:0.93885804 37:-0.72727273 38:0.26186292 39:-0.02767484 40:0.3984 41:0.73158756 42:-0.485 43:-0.22095863 44:0.3469163 45:0.35336109 46:0.69950771 47:0.49907895 48:-0.48876317 49:0.31448968 50:0.69211369 51:0.31203931 52:0.68986772 53:0.4924 54:-0.31220044 55:0.86532344 56:-0.45804795 57:0.56025192 58:0.37514793 59:0.079283133 60:0.74521652 61:0.23572846 62:-0.63082506 63:0.65644269 64:0.54118448 65:0.4474443 66:0.71523316 67:-0.12377822 68:-0.61216575 69:0.71847412 70:0.62544241 71:0.2449298 72:0.7448644 73:0.56923077 74:0.43026005 75:0.43065693 76:-0.16508539 77:-0.048275862 78:0.31410658 79:-0.10365854 80:0.22179975 81:0.32810458 82:-0.41004184 83:-0.30998249 84:0.34515689 85:0.089958159 86:0.35913313 87:-0.027422303 88:-0.51626016 89:-0.15676728 90:0.27967258 91:0.19526627 92:0.014018692 93:0.52 94:-0.17808219 95:0.076452599 96:0.68593548 97:0.10294118 98:0.067463011 99:0.0703125 100:-0.17401709 101:0.032062916 102:0.76478423 103:0.095808383 104:0.048569528 105:-0.039586919 106:-0.18351532 107:-0.11243655 108:0.68031477 109:-0.6 110:0.5620438 111:-0.27 112:0.46611614 113:0.2638029 114:-0.67033333 115:0.30850746 116:0.52807175 117:-0.062426901 118:0.60581081 119:0.41909814 120:-0.6637931 121:0.24884057 122:0.68845229 123:0.44138954 124:0.70420768 125:0.40570225 126:-0.65805195 127:0.88973707 128:-0.56069942 129:0.50720165 130:0.53297313 131:0.25023836 132:0.36105769 133:-0.15249788 134:-0.47952684 135:0.48310709 136:0.61722405 137:0.31143399 138:0.54540859 139:-0.22477383 140:-0.80456621 141:0.63472083 142:0.65243502 143:0.28438777 144:0.5569273 145:-0.48423325 
5293.839705333088 1:0.30555556 2:0.57253599 3:0.19904077 4:-0.30555556 5:0.51179673 6:-0.71896317 7:0.25233645 8:0.52526799 9:0.11909263 10:-0.40358272 11:0.51179673 12:-0.62266581 13:0.4 14:0.61825726 15:0.025454545 16:-0.74069899 17:0.51179673 18:-0.44044321 19:-0.13609467 20:0.018181818 21:-0.079787922 22:-0.15337827 23:-0.10185185 24:0.3219597 25:0.20588235 26:0.0752 27:-0.053323147 28:-0.17162393 29:-0.18397962 30:0.33121556 31:0.10309839 32:0.083375104 33:-0.098976109 34:-0.11125 35:-0.20654912 36:0.51141271 37:0.71590909 38:0.60984183 39:0.57817551 40:0.504 41:0.53846154 42:0.7133 43:-0.074443592 44:0.44732012 45:0.88677375 46:0.63308172 47:0.53618421 48:0.77848134 49:0.26297511 50:0.67290717 51:0.90407862 52:0.70053328 53:0.53 54:0.42701525 55:-0.16426299 56:-0.34417808 57:-0.41329601 58:0.46346154 59:0.22162401 60:0.82950655 61:-0.1628424 62:-0.094919786 63:-0.68885375 64:0.32420014 65:0.29156837 66:0.88259067 67:-0.077934435 68:0.0061236987 69:-0.51016441 70:0.49054505 71:0.030841234 72:0.88709764 73:0.30769231 74:0.58392435 75:0.24817518 76:-0.26755218 77:0.53655172 78:-0.63009404 79:0.25406504 80:0.44993663 81:0.10588235 82:-0.5083682 83:0.48861646 84:-0.71896317 85:0.29916318 86:0.71826625 87:0.053016453 88:-0.58739837 89:0.56377799 90:-0.71896317 91:-0.15976331 92:0.076323987 93:0.18857143 94:-0.17636986 95:-0.15400612 96:-0.12258065 97:0.058823529 98:0.075064477 99:-0.065538194 100:-0.17059829 101:-0.17120387 102:-0.056473095 103:0.12919162 104:0.028875582 105:-0.051290878 106:-0.18492427 107:-0.11751269 108:-0.1228329 109:0.36842105 110:0.52189781 111:0.815 112:0.54017565 113:0.50213825 114:0.72222222 115:0.28850746 116:0.60484305 117:0.58187135 118:0.69851351 119:0.5198939 120:0.73942529 121:0.074431689 122:0.64354451 123:0.9551366 124:0.71438008 125:0.37756714 126:0.72285714 127:-0.2242013 128:-0.10407993 129:-0.20236626 130:0.5048479 131:0.59434862 132:0.66105769 133:-0.33364219 134:-0.016479628 135:-0.70316742 136:0.4803327 137:0.40071594 138:0.81752317 139:-0.3308977 140:-0.21484018 141:-0.56568075 142:0.52725908 143:0.73133589 144:0.84962277 145:-0.014497827 
32768 1:0.30555556 2:0.2248062 3:0.10791367 4:0.1537037 5:0.061705989 6:0.60436562 7:0.45233645 8:0.029096478 9:0.058601134 10:0.14857745 11:0.061705989 12:0.6265293 13:0.424 14:0.17012448 15:0.076363636 16:0.13866967 17:0.061705989 18:0.83010157 19:-0.13609467 20:0.025454545 21:-0.079787922 22:-0.14515864 23:-0.064814815 24:0.28333226 25:0.20588235 26:0.071127273 27:-0.053323147 28:-0.16478632 29:-0.12737051 30:0.29231767 31:0.10309839 32:0.078696742 33:-0.098976109 34:-0.10175 35:-0.15617128 36:0.51826719 37:0.375 38:0.086115993 39:0.20760073 40:0.8272 41:0.95090016 42:0.2467 43:-0.49305798 44:-0.12958884 45:0.42276423 46:0.98227765 47:0.95065789 48:0.29412986 49:-0.30870152 50:0.063148705 51:0.45454545 52:0.95844588 53:0.95 54:0.32897603 55:0.46235419 56:0.60273973 57:0.13827852 58:-0.62426035 59:-0.40172579 60:0.82477341 61:0.50774117 62:0.40870894 63:-0.065612648 64:-0.94503063 65:-0.44692005 66:0.87772021 67:0.68272641 68:0.54439682 69:0.12837126 70:-1 71:-0.98343934 72:0.87954925 73:0.75384615 74:0.15839243 75:0.29927007 76:0.20303605 77:0.21931034 78:0.61755486 79:0.47764228 80:0.039290241 81:0.064052288 82:0.22175732 83:0.14535902 84:0.60436562 85:0.41422594 86:-0.21052632 87:-0.074954296 88:0.20528455 89:0.27361246 90:0.60436562 91:-0.15976331 92:0.068535825 93:0.18285714 94:-0.16780822 95:-0.10507645 96:-0.2 97:0.058823529 98:0.071263744 99:-0.065538194 100:-0.16102564 101:-0.12280702 102:-0.13638785 103:0.12919162 104:0.034730539 105:-0.051290878 106:-0.17153927 107:-0.09213198 108:-0.19660642 109:0.052631579 110:-0.02189781 111:0.58 112:0.87114956 113:0.90208719 114:0.12222222 115:-0.15925373 116:0.041076233 117:0.23976608 118:0.93202703 119:0.93899204 120:0.20310345 121:-0.37915304 122:0.32056937 123:0.55607925 124:0.96036726 125:0.73489807 126:0.11688312 127:0.61125247 128:0.55870108 129:0.2031893 130:-0.58359855 131:-0.1384242 132:0.66105769 133:0.57902865 134:0.51673238 135:-0.10859729 136:-0.83295789 137:-0.48873447 138:0.80960404 139:0.5506263 140:0.4390411 141:0.043169357 142:-0.85586938 143:-0.2625975 144:0.84156379 145:-0.49292611 
32768 1:0.30555556 2:-0.45736434 3:0.22781775 4:-0.20925926 5:-0.80943739 6:-0.20463847 7:0.10280374 8:-0.51914242 9:0.35727788 10:-0.3256059 11:-0.78402904 12:0.29555699 13:0.18933333 14:0.04011065 15:0.29090909 16:-0.47914318 17:-0.51724138 18:0.44228994 19:-0.28201183 20:0.71636364 21:-0.092719514 22:-0.25069867 23:-0.12962963 24:0.64810404 25:0.05 26:0.64596364 27:-0.22566845 28:-0.27282051 29:-0.16614775 30:0.28103728 31:-0.075919551 32:0.41052632 33:-0.18989761 34:-0.16375 35:-0.12594458 36:0.40969223 37:0.53034091 38:0.60281195 39:0.52298352 40:0.765888 41:0.73381342 42:0.39 43:0.27440173 44:0.19695301 45:0.75332144 46:0.89826058 47:0.70894737 48:0.53007733 49:0.60524793 50:0.40828402 51:0.67076167 52:0.73862456 53:0.596 54:0.67211329 55:0.89003181 56:0.7114726 57:-0.61021693 58:0.34556213 59:0.60174054 60:0.83736153 61:0.7743549 62:0.74025974 63:-0.68664032 64:0.14840027 65:0.79204893 66:0.91253886 67:0.80122827 68:0.79220249 69:-0.50125537 70:0.11962787 71:0.74966999 72:0.94457325 73:0.15384615 74:-0.42316785 75:0.28029197 76:-0.089184061 77:-0.71034483 78:-0.14106583 79:0.10569106 80:-0.23954373 81:0.19477124 82:-0.33682008 83:-0.57618214 84:0.12687585 85:0.13598326 86:-0.52012384 87:0.42961609 88:-0.39837398 89:-0.45472249 90:-0.10914052 91:-0.25147929 92:0.66978193 93:0.2648 94:-0.26027397 95:-0.18654434 96:0.52258065 97:-0.18867647 98:0.34410208 99:-0.13932292 100:-0.2434188 101:-0.071748336 102:0.038891849 103:-0.11077844 104:0.58110446 105:-0.20481928 106:-0.2610074 107:-0.13451777 108:0.26890446 109:0.63421053 110:0.58248175 111:0.58 112:0.98256652 113:0.71277207 114:0.32222222 115:0.7338806 116:0.31300448 117:0.49078947 118:0.91391892 119:0.64628647 120:0.45689655 121:0.74302441 122:0.41238974 123:0.71894911 124:0.89827598 125:0.66448507 126:0.44844156 127:0.83008199 128:0.85179017 129:-0.23590535 130:0.37502776 131:0.82543122 132:0.7411859 133:0.70195352 134:0.64856941 135:-0.56048265 136:0.4094611 137:0.76226574 138:0.83066554 139:0.42867084 140:0.76689498 141:-0.52397869 142:0.27465516 143:0.81503033 144:0.82681756 145:-0.1263382 
32768 1:-0.25 2:0.58361019 3:0.33573141 4:0.49259259 5:0.38838476 6:-0.13642565 7:0.10654206 8:0.5957121 9:0.60680529 10:0.48788198 11:0.26678766 12:0.12813909 13:0.032 14:0.66528354 15:0.48727273 16:0.40022548 17:0.25045372 18:0.32409972 19:-0.12426036 20:-0.17818182 21:0.094788569 22:-0.10669078 23:-0.27777778 24:0.37127406 25:0.15808824 26:-0.026909091 27:0.022154316 28:-0.095384615 29:-0.27370507 30:0.36401945 31:-0.0012683457 32:-0.06299081 33:-0.14866894 34:0.00125 35:-0.30730479 36:0.49427651 37:0.89772727 38:0.64147627 39:0.57423323 40:0.323776 41:0.53518822 42:0.925 43:0.26742482 44:0.4924743 45:0.78623835 46:0.37643584 47:0.70394737 48:0.84979499 49:0.82732008 50:0.75109128 51:0.71911548 52:0.46436734 53:0.68266667 54:0.69575163 55:0.71686108 56:-0.77226027 57:-0.30090973 58:0.11109467 59:0.56338963 60:0.57452165 61:0.19682414 62:-0.006302521 63:-0.054545454 64:0.18822328 65:-0.074530363 66:0.66694301 67:0.013407145 68:-0.11737089 69:-0.095002835 70:0.1382344 71:-0.66662667 72:0.63897126 73:0.15846154 74:0.53664303 75:0.27007299 76:0.53889943 77:0.27586207 78:-0.028213166 79:0.11178862 80:0.43219265 81:0.22352941 82:0.51882845 83:0.29597198 84:0.12141883 85:0.22384937 86:0.69040248 87:0.5393053 88:0.44715447 89:0.38266796 90:0.11186903 91:-0.049349112 92:-0.19626168 93:-1 94:0.035273973 95:-0.27217125 96:-0.027870968 97:0.063676471 98:-0.009366092 99:0.0703125 100:-0.079316239 101:-0.28009679 102:0.11214704 103:0.071856287 104:-0.056021291 105:0.0051635112 106:-0.097569567 107:-0.28274112 108:0.02791098 109:0.37189474 110:0.6740146 111:-1 112:0.24288898 113:0.73294185 114:0.77777778 115:0.28850746 116:0.64896861 117:0.63450292 118:0.41932432 119:0.77122016 120:0.55942529 121:0.23667604 122:0.60565357 123:0.86471153 124:0.50313759 125:0.77747687 126:0.51727273 127:0.45250212 128:-0.28226478 129:-1 130:0.27644142 131:0.15194591 132:0.35304487 133:0.39834762 134:-0.3266606 135:-0.7918552 136:0.39698492 137:0.080859128 138:0.31743892 139:0.14752958 140:0.11872146 141:-0.37076222 142:0.14929155 143:-0.60777516 144:0.32407407 145:0.44689478 
32768 1:0.43055556 2:0.29568106 3:0.35251799 4:0.41666667 5:-0.17422868 6:0.13642565 7:-0.56074766 8:0.17917305 9:-0.032136106 10:0.72181243 11:-0.35571688 12:0.18480361 13:-0.30133333 14:0.30567082 15:-0.029090909 16:0.65952649 17:-0.35571688 18:0.34441367 19:0.20710059 20:0.2 21:-0.03452735 22:-0.24379418 23:-0.080185185 24:0.32620872 25:0.29411765 26:0.083636364 27:-0.021237586 28:-0.27794872 29:-0.020096236 30:0.33549433 31:0.13245153 32:0.04695071 33:-0.092150171 34:-0.18525 35:-0.06070529 36:0.37870999 37:-0.97727273 38:0.61335677 39:0.39809193 40:0.3216 41:0.82324059 42:0.725 43:-0.22793553 44:0.49375918 45:0.66071783 46:0.2568428 47:0.61934211 48:0.76727046 49:0.055952151 50:0.74294306 51:0.69199017 52:0.22279936 53:0.61426667 54:0.90315904 55:0.53764581 56:0.60188356 57:-0.29363191 58:0.39585799 59:0.74363891 60:0.50352467 61:0.45962684 62:0.55118411 63:-0.38956522 64:0.55820286 65:0.78453473 66:0.5546114 67:0.53879422 68:0.31414574 69:-0.38365595 70:0.6456669 71:0.70790832 72:0.58624036 73:0.29230769 74:0.27659574 75:0.5620438 76:0.5483871 77:0.051034483 78:0.17241379 79:-0.62601626 80:0.1634981 81:0.28627451 82:0.61924686 83:-0.18038529 84:0.13642565 85:-0.24895397 86:0.30959752 87:0.045703839 88:0.67479675 89:-0.0593963 90:0.13642565 91:0.20710059 92:0.014018692 93:0.42857143 94:-0.28082192 95:0.088685015 96:-0.13109677 97:0.10779412 98:0.067463011 99:0.055989583 100:-0.2765812 101:0.032062916 102:-0.047682472 103:0.10179641 104:0.048569528 105:-0.0051635112 106:-0.28918633 107:-0.13426396 108:-0.1270134 109:-0.83157895 110:0.74452555 111:0 112:0.3193079 113:0.40103402 114:0.67411111 115:0.19402985 116:0.64591928 117:0.33230994 118:0.30851351 119:0.47480106 120:0.72701149 121:0.045084772 122:0.74097835 123:0.75211661 124:0.25873572 125:0.54321824 126:0.76181818 127:0.45292621 128:0.47010824 129:0.50720165 130:0.54540745 131:0.64046113 132:0.44342949 133:0.29688827 134:0.39035487 135:-0.43710407 136:0.63351239 137:0.7970099 138:0.284246 139:0.44154489 140:0.23150685 141:-0.51347594 142:0.67120203 143:0.7818497 144:0.36316872 145:-0.35821592 
32768 1:0.2875 2:-0.25802879 3:0.55155875 4:-0.27037037 5:-0.48275862 6:0.28649386 7:-0.042990654 8:-0.30168453 9:0.84120983 10:-0.50474183 11:-0.49364791 12:0.39343207 13:0.32 14:0.067773167 15:0.58545455 16:-0.41375423 17:-0.44283122 18:0.62511542 19:-0.26236686 20:0.97090909 21:-0.086253718 22:-0.17573566 23:-0.13888889 24:0.512908 25:0.061764706 26:0.87403636 27:-0.21894576 28:-0.1965812 29:-0.18030003 30:0.36661264 31:-0.060155825 32:0.55254804 33:-0.18552901 34:-0.11175 35:-0.13350126 36:0.46685859 37:0.32954545 38:-0.12829525 39:0.089332177 40:0.604992 41:0.68353519 42:0.39 43:-0.085606642 44:-0.7575257 45:0.20900258 46:0.76987201 47:0.67105263 48:0.52592516 49:-0.089330504 50:-0.34833641 51:0.22201474 52:0.56506683 53:0.612 54:0.66481481 55:0.85079533 56:0.13869863 57:0.4436669 58:0.44038462 59:0.17988052 60:0.90785498 61:0.63175863 62:0.17112299 63:0.50513834 64:0.44077604 65:0.22044561 66:0.92683938 67:0.78358274 68:0.29312105 69:0.64622985 70:0.71058752 71:0.033721349 72:0.99493179 73:-0.030769231 74:-0.20567376 75:0.54306569 76:-0.092979127 77:-0.37931034 78:0.31034483 79:0.15243902 80:-0.21166033 81:0.040522876 82:-0.44769874 83:-0.44833625 84:0.3165075 85:0.26569038 86:-0.43962848 87:0.52468007 88:-0.55081301 89:-0.37487829 90:0.24283765 91:-0.23372781 92:0.90654206 93:0.2648 94:-0.17808219 95:-0.19877676 96:0.2516129 97:-0.16426471 98:0.4562237 99:-0.125 100:-0.17162393 101:-0.07707199 102:0.098827917 103:-0.095808383 104:0.77937458 105:-0.1979346 106:-0.18738993 107:-0.14213198 108:0.1459486 109:0.43421053 110:-0.17664234 111:0.3067 112:0.55262813 113:0.63183762 114:0.32222222 115:0.28104478 116:-0.38636771 117:0.22266082 118:0.74364865 119:0.63753316 120:0.45402299 121:0.24579944 122:-0.4404571 123:0.33665008 124:0.79258868 125:0.68253968 126:0.45103896 127:0.73112807 128:0.38751041 129:0.53631687 130:0.39974835 131:0.069428794 132:0.85336538 133:0.70967493 134:-0.0027297543 135:0.42277526 136:0.61410501 137:0.044851548 138:0.94860994 139:0.53201113 140:0.056392694 141:0.54544752 142:0.596134 143:0.076389749 144:0.9951989 145:-0.98558969 
32768 1:-0.083333333 2:-0.6013289 3:0.81534772 4:0.19074074 5:-0.53720508 6:0.10914052 7:0.056074766 8:-0.59877489 9:0.64461248 10:0.25605901 11:-0.19782214 12:0.33419189 13:0.077333333 14:-0.21438451 15:-2.220446e-16 16:0.13641488 17:-0.16696915 18:0.49953832 19:0.13609467 20:-0.12 21:-0.50006466 22:0.0027946737 23:1 24:0.31977081 25:0.22058824 26:-0.0036363636 27:-0.049350649 28:-0.0017094017 29:1 30:0.29659643 31:0.22522196 32:-0.029573935 33:0.65078498 34:0.03875 35:0.90680101 36:0.47755158 37:-0.23863636 38:0.7258348 39:-0.24576204 40:0.3536 41:-0.61702128 42:0.82 43:0.27440173 44:0.22815712 45:-0.23160817 46:0.35175583 47:-0.69078947 48:0.77090362 49:0.084314104 50:0.53438743 51:-0.81405405 52:0.42863079 53:-0.68666667 54:0.60860566 55:-0.13435843 56:0.68664384 57:0.43946816 58:0.49674556 59:0.33549672 60:0.33383686 61:0.40373164 62:0.69881589 63:0.31810277 64:0.52093261 65:0.50878113 66:0.21782383 67:0.46700112 68:0.63523168 69:0.52198915 70:0.6654869 71:0.50054002 72:0.21733973 73:0.10307692 74:-0.91252955 75:0.27007299 76:0.23529412 77:-0.22896552 78:0.2137931 79:0.038617886 80:-0.44993663 81:0.57385621 82:0.22175732 83:-0.34500876 84:0.25102319 85:0.25313808 86:-0.20433437 87:0.56855576 88:0.18495935 89:-0.034079844 90:0.24556617 91:-0.073017752 92:-0.13395639 93:-1 94:0.05 95:1 96:-0.12258065 97:0.034264706 98:0.012352382 99:-0.13194444 100:0.0061538462 101:0.97822142 102:0.079648375 103:-0.047904192 104:-0.026746507 105:0.22030981 106:-0.0017611835 107:0.80482233 108:-0.0065166605 109:0.51231579 110:0.89781022 111:-1 112:0.24288898 113:-0.56277526 114:0.76666667 115:0.48761194 116:0.62026906 117:-0.43274854 118:0.39905405 119:-0.57493369 120:0.46747126 121:0.54687144 122:0.31896552 123:-0.30924326 124:0.48266068 125:-0.83449936 126:0.44584416 127:0.32683065 128:0.46044963 129:-1 130:0.57738139 131:0.20776632 132:-0.20288462 133:0.26106092 134:0.46517036 135:0.44841629 136:0.71686016 137:0.14866288 138:-0.34136479 139:0.42223382 140:0.62374429 141:0.44628929 142:0.65900347 143:0.44459577 144:-0.37585734 145:0.40203028 
32768 1:0.5625 2:0.42857143 3:0.45563549 4:0.77962963 5:-0.47731397 6:0.3888131 7:0.31401869 8:0.44257274 9:0.54253308 10:0.89041096 11:-0.61887477 12:0.38441726 13:0.48266667 14:0.38589212 15:0.31636364 16:0.59188275 17:-0.47731397 18:0.65835642 19:0.094674556 20:0.18545455 21:-0.0259925 22:-0.67943449 23:0.074074074 24:0.46140475 25:0.26955882 26:0.15345455 27:0.042322383 28:-0.72547009 29:0.018964053 30:0.4197731 31:0.12031165 32:0.083375104 33:-0.12627986 34:-0.4675 35:0.057934509 36:0.51072726 37:-0.068181818 38:0.26186292 39:0.36655365 40:0.1232 41:0.38134206 42:0.21 43:0.097606921 44:0.022577092 45:0.50862582 46:0.15260912 47:0.53723684 48:0.2716043 49:0.28304071 50:0.57881463 51:0.87223587 52:0.28706974 53:0.2772 54:0.41176471 55:0.51484624 56:-0.45804795 57:0.59944017 58:0.72899408 59:0.32000885 60:0.91490433 61:-0.21476776 62:-0.4302903 63:0.59889328 64:0.79867257 65:0.36496287 66:0.71170984 67:-0.2414151 68:-0.78567054 69:0.51000243 70:0.90818081 71:0.24997 72:0.72577775 73:0.36923077 74:0.47990544 75:0.43065693 76:0.84440228 77:-0.43862069 78:0.39811912 79:0.33536585 80:0.25982256 81:0.38562092 82:0.92259414 83:-0.54816112 84:0.39972715 85:0.39958159 86:0.37151703 87:0.55758684 88:0.87804878 89:-0.50340798 90:0.3478854 91:0.20710059 92:0.1588785 93:0.32 94:-0.72431507 95:0.13957187 96:0.13548387 97:0.15191176 98:0.10547034 99:-0.019965278 100:-0.70940171 101:0.036902601 102:0.22749068 103:0.074850299 104:0.048569528 105:-0.012048193 106:-0.73723142 107:0.015989848 108:0.0451248 109:-0.53684211 110:0.24087591 111:0.325 112:0.15021628 113:0.28512159 114:0.2 115:0.2138806 116:0.39013453 117:0.44809942 118:0.18459459 119:0.52785146 120:0.27965517 121:0.10286627 122:0.66579791 123:0.77655582 124:0.15872911 125:0.41322501 126:0.088701299 127:0.61125247 128:-0.2549542 129:0.86213992 130:0.77055732 131:0.65086244 132:1 133:-0.18137596 134:-0.65524214 135:0.39969834 136:0.85323168 137:0.38260686 138:0.78652064 139:-0.31280445 140:-0.7522831 141:0.41694339 142:0.89415408 143:0.430234 144:0.56687243 145:-0.79857647 
32768 1:0.63888889 2:0.29568106 3:0.15107914 4:0.42777778 5:-0.47731397 6:0.30695771 7:0.27663551 8:0.17917305 9:0.062381853 10:0.46891465 11:-0.61887477 12:0.30070831 13:0.496 14:0.30567082 15:-0.13090909 16:0.31228861 17:-0.47731397 18:0.40350877 19:0.088757396 20:0.2 21:-0.03452735 22:-0.20269604 23:0.074074074 24:0.33908453 25:0.26470588 26:0.16509091 27:0.03223835 28:-0.22632479 29:0.018964053 30:0.43922204 31:0.11741257 32:0.088387636 33:-0.095426621 34:-0.1315 35:0.057934509 36:0.50250189 37:-0.13636364 38:0.61335677 39:0.49270677 40:0.0528 41:0.38134206 42:0.635 43:0.069699295 44:0.29790749 45:0.66726155 46:0.079094191 47:0.53723684 48:0.49218872 49:0.20586533 50:0.6480745 51:0.96815725 52:0.24551562 53:0.2772 54:0.68845316 55:0.72375398 56:0.60188356 57:-0.56920924 58:0.70828402 59:0.32000885 60:-0.034743202 61:0.098054784 62:0.53724217 63:-0.72126482 64:0.78437713 65:0.36496287 66:0.047875648 67:0.099385866 68:0.31414574 69:-1 70:0.90514713 71:0.24997 72:-0.069606945 73:0.56923077 74:0.27659574 75:0.35766423 76:0.48387097 77:-0.43862069 78:0.22257053 79:0.29471545 80:0.1634981 81:-0.045751634 82:0.4790795 83:-0.54816112 84:0.23601637 85:0.4623431 86:0.30959752 87:-0.1297989 88:0.43902439 89:-0.50340798 90:0.25920873 91:0.19526627 92:0.17133956 93:0.30857143 94:-0.22773973 95:0.13957187 96:-0.096774193 97:0.14705882 98:0.11008552 99:-0.019965278 100:-0.22529915 101:0.036902601 102:-0.021044219 103:0.068862275 104:0.048569528 105:-0.0051635112 106:-0.23388517 107:0.015989848 108:0.082011558 109:-0.6 110:0.45985401 111:0.405 112:0.078122952 113:0.28512159 114:0.67777778 115:0.18402985 116:0.53955157 117:0.56505848 118:0.11256757 119:0.52785146 120:0.76632184 121:0.048125903 122:0.71852446 123:0.91620843 124:0.086993857 125:0.41322501 126:0.36467532 127:0.88973707 128:0.5886761 129:0.1090535 130:0.74983347 131:0.65086244 132:-0.80448718 133:0.12284766 134:0.4071378 135:-0.93740573 136:0.83711662 137:0.38260686 138:-0.90513901 139:0.029923452 140:0.28378995 141:-1 142:0.88289387 143:0.430234 144:-0.53155007 145:-0.1277384 
32768 1:-0.22222222 2:0.46179402 3:-0.11990408 4:0.38333333 5:-0.87114338 6:0.13642565 7:-0.42429907 8:0.47013783 9:-0.89413989 10:0.26659642 11:-0.72413793 12:0.18480361 13:-0.512 14:0.57952974 15:-0.53818182 16:0.12288613 17:-0.68965517 18:0.34441367 19:0.4260355 20:-0.26545455 21:0.068925385 22:0.92339306 23:-0.092592593 24:0.33908453 25:0.47426471 26:-0.23141818 27:-0.12666157 28:0.93299145 29:-0.11718087 30:0.3821718 31:0.38358398 32:-0.088387636 33:-0.18771331 34:0.64 35:-0.14634761 36:0.47083419 37:0.073863636 38:0.66608084 39:-0.056532366 40:-0.79712 41:0.7106383 42:0.47 43:0.12439824 44:0.63142438 45:0.39103708 46:-0.7558254 47:0.63815789 48:0.70862096 49:0.49199305 50:0.64244835 51:0.34034398 52:-0.66424268 53:0.65853333 54:0.79422658 55:0.58218452 56:0.011130137 57:-0.15227432 58:0.48801775 59:-0.037392138 60:0.6878147 61:0.39849146 62:0.19289534 63:0.033517787 64:0.27144316 65:-0.085889035 66:0.76020725 67:0.50644408 68:0.45335783 69:0.01093383 70:0.30286177 71:-0.45133805 72:0.8724322 73:-0.68153846 74:0.49881797 75:-0.13868613 76:0.29222011 77:-0.47034483 78:0.17241379 79:-1 80:0.40430925 81:-0.47712418 82:0.28661088 83:-0.70928196 84:0.13642565 85:-0.56276151 86:0.60371517 87:-0.52102377 88:0.23577236 89:-0.76630964 90:0.13642565 91:0.49502959 92:-0.24610592 93:0.44 94:0.89965753 95:-0.092110092 96:-0.10967742 97:0.72058824 98:-0.083480386 99:0.0017361111 100:0.91726496 101:-0.1015124 102:0.048215237 103:0.46961078 104:-0.18988689 105:-0.036488812 106:0.88657978 107:-0.10659898 108:-0.01930407 109:0.30178947 110:0.81605839 111:-0.09 112:-0.76733517 113:0.64677347 114:0.70555556 115:0.24776119 116:0.63139013 117:0.16666667 118:-0.86040541 119:0.71816976 120:0.66206897 121:0.35178286 122:0.80112269 123:0.59343633 124:-0.77647137 125:0.65395321 126:0.62935065 127:0.572095 128:0.11473772 129:-0.057304527 130:0.46562061 131:-0.16650776 132:0.36778846 133:0.49424755 134:0.50540896 135:-0.045852187 136:0.42089759 137:-0.31038113 138:0.61853412 139:0.54175365 140:0.28219178 141:0.35207352 142:0.43379938 143:-0.64442243 144:0.61762689 145:-0.85630524 
32768 1:0.54861111 2:-0.46843854 3:0.55155875 4:0.82592593 5:-0.5553539 6:-0.94815825 7:0.084112149 8:-0.42113323 9:0.69376181 10:1 11:-0.70054446 12:-0.41661301 13:0.32266667 14:0.10373444 15:0.34545455 16:0.70011274 17:-0.56805808 18:-0.29455217 19:0.094674556 20:0.60727273 21:-0.0259925 22:-0.76163077 23:0.074074074 24:0.33908453 25:0.26955882 26:0.46763636 27:0.042322383 28:-0.81435897 29:0.018964053 30:0.43922204 31:0.12031165 32:0.16959064 33:-0.098976109 34:-0.5285 35:0.057934509 36:0.50250189 37:-0.40909091 38:0.61335677 39:-0.20113538 40:0.0336 41:0.38134206 42:0.91 43:-0.26044792 44:0.43006608 45:-0.20523498 46:0.060715458 47:0.53513158 48:0.52073494 49:-0.25081999 50:0.52061306 51:0.16461916 52:0.23318789 53:0.27906667 54:0.65359477 55:0.87327678 56:0.92808219 57:0.47487754 58:0.54674556 59:0.4652998 60:0.75881168 61:0.45597459 62:0.6934683 63:0.45818182 64:0.61147039 65:0.59458279 66:0.63129534 67:0.63515267 68:0.54827516 69:0.25115413 70:0.77166549 71:0.45277811 72:0.58602469 73:0.41538462 74:-0.18676123 75:0.42335766 76:0.89184061 77:-0.56275862 78:-0.830721 79:0.085365854 80:-0.17870722 81:0.5503268 82:1 83:-0.64623468 84:-0.75443383 85:0.4665272 86:0.086687307 87:0.83546618 88:0.98780488 89:-0.61441091 90:-0.50068213 91:0.20710059 92:0.4953271 93:0.31428571 94:-0.80993151 95:0.13957187 96:-0.096774193 97:0.15191176 98:0.2683589 99:-0.0091145833 100:-0.79487179 101:0.036902601 102:-0.021044219 103:0.074850299 104:0.028343313 105:0.0017211704 106:-0.82775625 107:0.015989848 108:0.082011558 109:-0.85263158 110:0.5649635 111:-0.035 112:0.058461135 113:0.27656858 114:0.97777778 115:-0.16910448 116:0.52466368 117:-0.078216374 118:0.09 119:0.52254642 120:0.91574713 121:-0.31072759 122:0.50300722 123:0.14811905 124:0.066252725 125:0.41322501 126:0.40038961 127:0.7314108 128:0.72489592 129:0.85493827 130:0.5881874 131:0.76475687 132:0.45833333 133:0.47092889 134:0.61136387 135:0.20361991 136:0.63749783 137:0.63150137 138:0.42257793 139:0.53931802 140:0.456621 141:0.17816048 142:0.67870883 143:0.55206141 144:0.43381344 145:-0.33126222 
32768 1:-0.70833333 2:0.58361019 3:-0.26378897 4:-0.58148148 5:0.061705989 6:-0.13642565 7:-0.20560748 8:0.5957121 9:-0.56521739 10:-0.55532139 11:0.061705989 12:0.12813909 13:-0.21866667 14:0.66528354 15:-0.66909091 16:-0.70913191 17:0.061705989 18:0.32409972 19:-0.088757396 20:-0.17818182 21:0.094788569 22:-0.062962354 23:-0.22222222 24:0.37127406 25:0.16911765 26:-0.026909091 27:0.022154316 28:-0.057094017 29:-0.22643646 30:0.36401945 31:0.02826599 32:-0.06299081 33:-0.15658703 34:0.018 35:-0.26448363 36:0.49427651 37:0.63636364 38:0.64147627 39:0.32981156 40:0.3536 41:0.53518822 42:0.925 43:0.42789367 44:0.4924743 45:0.44259369 46:0.24686577 47:0.75657895 48:0.84979499 49:0.9332433 50:0.75109128 51:0.60687961 52:0.28083662 53:0.732 54:0.69575163 55:0.32873807 56:-0.77226027 57:0.30090973 58:-0.25310651 59:0.85397153 60:0.57452165 61:0.48741564 62:-0.006302521 63:0.16158103 64:-0.50936011 65:0.7375273 66:0.66694301 67:0.34815327 68:-0.11737089 69:0.36178829 70:-0.61108302 71:0.43165727 72:0.63897126 73:-0.18461538 74:0.53664303 75:0.27007299 76:-0.5483871 77:0.12689655 78:-0.028213166 79:-0.34146341 80:0.43219265 81:-0.21045752 82:-0.63807531 83:0.10683012 84:0.12141883 85:-0.089958159 86:0.69040248 87:-0.30895795 88:-0.57520325 89:0.16650438 90:0.11186903 91:-0.049349112 92:-0.19626168 93:-1 94:0.044863014 95:-0.22324159 96:-0.027870968 97:0.063676471 98:-0.009366092 99:0.055989583 100:-0.045128205 101:-0.23169994 102:0.11214704 103:0.05988024 104:-0.056021291 105:-0.0034423408 106:-0.059175766 107:-0.2428934 108:0.02791098 109:0.45263158 110:0.6740146 111:-1 112:0.18298597 113:0.77123891 114:0.77777778 115:0.40298507 116:0.64896861 117:0.43961988 118:0.31256757 119:0.81100796 120:0.55942529 121:0.4465141 122:0.60565357 123:0.59849873 124:0.36732941 125:0.84412849 126:0.51727273 127:0.62496466 128:-0.28226478 129:-1 130:-0.33076752 131:0.7560891 132:0.35304487 133:0.58675006 134:-0.3266606 135:0.29909502 136:-0.4103275 137:0.81469783 138:0.31743892 139:0.5295755 140:0.11872146 141:0.29338173 142:-0.47733884 143:0.44831002 144:0.32407407 145:-0.34144278 
32768 1:-0.34027778 2:0.1406423 3:0.15107914 4:0.21296296 5:-0.47731397 6:0.1159618 7:-0.28971963 8:0.22205207 9:0.062381853 10:0.30453109 11:-0.61887477 12:0.19124276 13:-0.344 14:0.46887967 15:-0.13090909 16:0.26042841 17:-0.47731397 18:0.34810711 19:0.55621302 20:0.25818182 21:-0.03452735 22:-0.13693901 23:0.074074074 24:0.37771197 25:0.56367647 26:0.21163636 27:0.03223835 28:-0.15794872 29:0.018964053 30:0.43273906 31:0.31672404 32:0.10275689 33:-0.095426621 34:-0.08425 35:0.057934509 36:0.50524368 37:0.40909091 38:0.61335677 39:0.49270677 40:0.712 41:0.38134206 42:0.465 43:0.1813298 44:0.42639501 45:0.66726155 46:0.78798819 47:0.53723684 48:0.40395495 49:0.7009454 50:0.55107188 51:0.96815725 52:0.66105686 53:0.2772 54:0.57734205 55:0.64899258 56:0.78339041 57:-0.56920924 58:-0.71775148 59:0.32000885 60:0.53222558 61:0.3511711 62:0.63464477 63:-0.72126482 64:-0.82998639 65:0.36496287 66:0.51471503 67:0.72043941 68:0.4952031 69:-1 70:-0.87561938 71:0.24997 72:0.44044859 73:-0.93846154 74:0.30969267 75:0.35766423 76:0.26375712 77:-0.43862069 78:0.072100313 79:-0.32113821 80:0.23447402 81:-0.045751634 82:0.25732218 83:-0.54816112 84:0.15416098 85:-0.30334728 86:0.47058824 87:-0.1297989 88:0.27439024 89:-0.50340798 90:0.14324693 91:1 92:0.2211838 93:0.30857143 94:-0.15924658 95:0.13957187 96:-0.019354839 97:0.44602941 98:0.13723361 99:-0.019965278 100:-0.15692308 101:0.036902601 102:0.058870538 103:0.17065868 104:0.048303393 105:-0.0051635112 106:-0.16343783 107:0.015989848 108:0.069715972 109:0.14736842 110:0.5620438 111:0.405 112:0.75317866 113:0.28512159 114:0.48888889 115:0.30343284 116:0.53955157 117:0.56505848 118:0.86486486 119:0.52785146 120:0.57091954 121:0.55599483 122:0.54310345 123:0.91620843 124:0.83816633 125:0.41322501 126:0.25428571 127:0.41193102 128:0.67360533 129:0.1090535 130:-0.67715195 131:0.65086244 132:0.09775641 133:0.36900625 134:0.55474674 135:-0.93740573 136:-0.82117484 137:0.38260686 138:0.043470935 139:0.56854558 140:0.4086758 141:-1 142:-0.89434175 143:0.430234 144:0.24091221 145:-0.04477699 
32768 1:-0.25 2:0.29568106 3:0.35971223 4:0.22407407 5:0.11615245 6:0.13642565 7:0.10654206 8:0.17917305 9:0.25141777 10:0.17386723 11:-0.079854809 12:0.18480361 13:0.032 14:0.30567082 15:0.12 16:0.23111612 17:-0.043557169 18:0.34441367 19:-0.12426036 20:-0.13454545 21:0.0042674253 22:0.42462601 23:-0.19444444 24:0.3133329 25:0.15808824 26:-0.0094545455 27:0.011764706 28:0.3617094 29:-0.1887914 30:0.28881686 31:-0.0012683457 32:-0.040601504 33:-0.020068259 34:0.17 35:-0.22921914 36:0.47755158 37:0.89772727 38:0.7258348 39:0.44808011 40:-0.098624 41:0.52864157 42:0.925 43:0.26742482 44:0.51450073 45:0.58139996 46:0.16311126 47:0.68644737 48:0.8664037 49:0.82732008 50:0.79299641 51:0.66584767 52:0.19426553 53:0.67333333 54:0.72592593 55:0.71686108 56:0.42123288 57:0.59622113 58:0.75710059 59:0.23150675 60:0.57452165 61:0.19682414 62:0.60141329 63:0.69533597 64:0.70983662 65:0.2214941 66:0.70176166 67:0.013407145 68:0.49091651 69:0.59633919 70:0.86490039 71:-0.39877595 72:0.65913625 73:0.15846154 74:0.27659574 75:0.27007299 76:0.40607211 77:0.095172414 78:0.17241379 79:0.11178862 80:0.1634981 81:0.24183007 82:0.27196653 83:0.066549912 84:0.13642565 85:0.22384937 86:0.30959752 87:0.2833638 88:0.2296748 89:0.028237585 90:0.13642565 91:-0.049349112 92:-0.14423676 93:-1 94:0.089041096 95:-0.18654434 96:-0.13109677 97:0.063676471 98:0.0069227637 99:0.041666667 100:0.32410256 101:-0.1954023 102:0.079648375 103:0.071856287 104:-0.040053227 105:0.039586919 106:0.36033815 107:-0.21040609 108:-0.0089757777 109:0.37189474 110:0.76642336 111:-1 112:-0.0098309084 113:0.665922 114:0.74811111 115:0.28850746 116:0.72071749 117:0.54678363 118:0.10310811 119:0.70159151 120:0.59126437 121:0.23667604 122:0.63171612 123:0.72069477 124:0.14644296 125:0.81629429 126:0.53805195 127:0.45250212 128:0.38218152 129:-1 130:0.70853379 131:0.35390483 132:0.38301282 133:0.39834762 134:0.3167526 135:0.42639517 136:0.86588113 137:0.32617393 138:0.34894693 139:0.14752958 140:0.52694064 141:0.61927562 142:0.87763911 143:-0.32796831 144:0.36248285 145:0.59896152 
32768 1:-0.70833333 2:0.45071982 3:0.33573141 4:0.19074074 5:-0.53720508 6:0.13642565 7:-0.20560748 8:0.31393568 9:0.60680529 10:0.25605901 11:-0.19782214 12:0.18480361 13:-0.21866667 14:0.31396957 15:0.48727273 16:0.13641488 17:-0.16696915 18:0.34441367 19:-0.088757396 20:-0.13454545 21:0.094788569 22:0.0027946737 23:1 24:0.3133329 25:0.16911765 26:-0.0094545455 27:0.022154316 28:-0.0017094017 29:1 30:0.28881686 31:0.02826599 32:-0.034920635 33:-0.14866894 34:0.03875 35:0.90680101 36:0.47755158 37:0.63636364 38:0.73286467 39:0.57423323 40:0.3536 41:-0.61702128 42:0.925 43:0.42789367 44:0.42639501 45:0.78623835 46:0.35175583 47:-0.69078947 48:0.8664037 49:0.9332433 50:0.7962945 51:0.71911548 52:0.42863079 53:-0.68666667 54:0.72592593 55:0.32873807 56:-0.6385274 57:-0.30090973 58:0.49674556 59:0.33549672 60:0.57452165 61:0.48741564 62:-0.10752483 63:-0.054545454 64:0.52093261 65:0.50878113 66:0.70176166 67:0.34815327 68:-0.35109206 69:-0.095002835 70:0.6654869 71:0.50054002 72:0.65913625 73:-0.18461538 74:0.19858156 75:0.27007299 76:0.23529412 77:-0.22896552 78:0.17241379 79:-0.34146341 80:0.072243346 81:0.22352941 82:0.22175732 83:-0.34500876 84:0.13642565 85:-0.089958159 86:0.41176471 87:0.5393053 88:0.18495935 89:-0.034079844 90:0.13642565 91:-0.049349112 92:-0.14423676 93:-1 94:0.05 95:1 96:-0.13109677 97:0.063676471 98:0.0069227637 99:0.0703125 100:0.0061538462 101:0.97822142 102:0.079648375 103:0.05988024 104:-0.029407851 105:0.0051635112 106:-0.0017611835 107:0.80482233 108:-0.0089757777 109:0.45263158 110:0.8929927 111:-1 112:0.24288898 113:-0.56277526 114:0.74811111 115:0.40298507 116:0.81399103 117:0.63450292 118:0.39905405 119:-0.57493369 120:0.59126437 121:0.4465141 122:0.59161989 123:0.86471153 124:0.48266068 125:-0.83449936 126:0.53805195 127:0.62496466 128:0.039134055 129:-1 130:0.57738139 131:0.20776632 132:0.38301282 133:0.58675006 134:-0.43382873 135:-0.7918552 136:0.71686016 137:0.14866288 138:0.34894693 139:0.5295755 140:-0.30159817 141:-0.37076222 142:0.65900347 143:0.44459577 144:0.36248285 145:0.44596132 
32768 1:0.72222222 2:0.84939092 3:0.33573141 4:0.42222222 5:0.3030853 6:-0.30695771 7:0.55140187 8:0.099540582 9:0.4442344 10:0.45837724 11:0.42831216 12:-0.32260142 13:0.47466667 14:0.52973721 15:0.4 16:0.3686584 17:0.47005445 18:-0.38319483 19:-0.088757396 20:-0.44 21:-0.267296 22:-0.22735492 23:-0.40740741 24:0.32620872 25:0.22544118 26:0.51418182 27:-0.083880825 28:-0.25367521 29:-0.63402208 30:0.33030794 31:0.070302591 32:0.33132832 33:-0.16668942 34:-0.12375 35:-0.63904282 36:0.40653917 37:0.13068182 38:-0.11775044 39:0.81865489 40:0.6 41:0.30932897 42:0.7225 43:-0.14881741 44:-0.71530837 45:0.84314892 46:0.724319 47:0.30921053 48:0.83733845 49:0.39552383 50:-0.61024348 51:0.84727273 52:0.78004017 53:0.23106667 54:0.92810458 55:0.24602333 56:0.31421233 57:-1 58:0.29186391 59:0.30452098 60:0.4612286 61:-0.058515284 62:0.43601986 63:-0.35525692 64:0.23332199 65:0.34294452 66:0.59108808 67:-0.32185797 68:0.56664625 69:0.10520774 70:0.13479624 71:0.12612504 72:0.65568556 73:0.61538462 74:0.643026 75:0.39416058 76:0.47817837 77:0.31034483 78:-0.25768025 79:0.59349593 80:0.16856781 81:0.38823529 82:0.4623431 83:0.33975482 84:-0.40109141 85:0.31799163 86:0.39628483 87:0.60146252 88:0.42073171 89:0.58519961 90:-0.40109141 91:-0.088757396 92:0.04517134 93:0.16571429 94:-0.25342466 95:-0.55351682 96:-0.11406452 97:0.10779412 98:0.51269173 99:-0.29991319 100:-0.25367521 101:-0.55837871 102:-0.058337773 103:0.043562874 104:0.23805722 105:-0.16213425 106:-0.26417753 107:-0.51725888 108:-0.12455429 109:0.19473684 110:-0.41605839 111:0.605 112:0.63848473 113:0.32443991 114:0.737 115:-0.049701492 116:-0.64735426 117:0.60818713 118:0.71054054 119:0.34681698 120:0.8045977 121:0.43434958 122:-0.60966319 123:0.74181723 124:0.79192813 125:0.35680433 126:0.79649351 127:0.064178683 128:0.60033306 129:0.12355967 130:0.33313596 131:0.30536535 132:0.037339744 133:-0.029418578 134:0.57901122 135:0.20573152 136:0.36544793 137:0.26721415 138:0.34355518 139:-0.53201113 140:0.23242009 141:0.068036142 142:0.030871728 143:0.19499814 144:0.36728395 145:-0.091012514 
32768 1:0.30555556 2:0.29568106 3:0.45563549 4:0.49259259 5:0.22504537 6:0.034106412 7:0.10280374 8:0.17917305 9:0.68241966 10:0.48788198 11:-0.029038113 12:0.16162267 13:0.18933333 14:0.30567082 15:0.014545455 16:0.40022548 17:0.036297641 18:0.46075716 19:-0.12426036 20:-0.13454545 21:0.055993793 22:-0.10669078 23:-0.074074074 24:0.33264662 25:0.15808824 26:-0.0094545455 27:0.011764706 28:-0.095384615 29:-0.070761393 30:0.30696921 31:-0.0079724588 32:-0.040601504 33:-0.10197952 34:0.00125 35:-0.11335013 36:0.48207554 37:0.54545455 38:0.7258348 39:0.085389892 40:0.323776 41:0.53518822 42:0.765 43:0.48370892 44:0.51450073 45:0.12532223 46:0.37643584 47:0.75881579 48:0.73353402 49:0.8946556 50:0.79299641 51:0.47203931 52:0.46436734 53:0.73333333 54:0.5577342 55:0.26829268 56:0.42123288 57:0.083974808 58:0.11109467 59:0.77136957 60:0.53222558 61:0.53156014 62:0.60141329 63:0.11667984 64:0.18822328 65:0.672346 66:0.42196891 67:0.39641899 68:0.49091651 69:0.0034826274 70:0.1382344 71:0.32413297 72:0.42977301 73:0.15384615 74:0.27659574 75:0.27007299 76:0.53889943 77:0.051034483 78:-0.044514107 79:0.10569106 80:0.1634981 81:0.3124183 82:0.51882845 83:0.010507881 84:0.22237381 85:0.13598326 86:0.30959752 87:0.59780622 88:0.44715447 89:0.080817916 90:0.16234652 91:-0.045325444 92:-0.14423676 93:-1 94:0.035273973 95:-0.070336391 96:-0.10529032 97:0.068676471 98:0.0069227637 99:0.055989583 100:-0.079316239 101:-0.08045977 102:0.088438998 103:0.077844311 104:-0.040053227 105:0.013769363 106:-0.097569567 107:-0.10888325 108:0.000860691 109:0.48073684 110:0.76642336 111:-1 112:0.24288898 113:0.77123891 114:0.74444444 115:0.44283582 116:0.72071749 117:0.21052632 118:0.41932432 119:0.81100796 120:0.4137931 121:0.51950125 122:0.63171612 123:0.31919351 124:0.50313759 125:0.8635372 126:0.39909091 127:0.65083404 128:0.38218152 129:-1 130:0.27644142 131:0.70754962 132:0.11266026 133:0.61501042 134:0.3167526 135:-0.12564103 136:0.39698492 137:0.75573805 138:-0.0094355518 139:0.58768267 140:0.52694064 141:0.053981002 142:0.14929155 143:0.34901572 144:-0.038065844 145:0.43586827 
32768 1:-0.66666667 2:0.58361019 3:0.35971223 4:0.45 5:0.052631579 6:0.13642565 7:-0.11214953 8:0.5957121 9:0.25141777 10:0.49841939 11:0.049001815 12:0.18480361 13:-0.36 14:0.66528354 15:0.12 16:0.40473506 17:0.08892922 18:0.34441367 19:-0.12426036 20:-0.17818182 21:0.0042674253 22:-0.068551702 23:0.2037037 24:0.3133329 25:0.16176471 26:-0.026909091 27:0.011764706 28:-0.061538462 29:0.20294367 30:0.28881686 31:-0.0010871535 32:-0.06299081 33:-0.020068259 34:0.01375 35:0.14609572 36:0.47755158 37:0.85227273 38:0.64147627 39:0.44808011 40:0.3536 41:0.53518822 42:0.925 43:0.026721552 44:0.4924743 45:0.58139996 46:0.29609452 47:0.6075 48:0.8664037 49:0.55701331 50:0.75109128 51:0.66584767 52:0.35134012 53:0.596 54:0.72592593 55:0.089077412 56:-0.77226027 57:0.59622113 58:-0.22514793 59:0.73006859 60:0.57452165 61:0.56554188 62:-0.006302521 63:0.69533597 64:-0.24574541 65:0.96767147 66:0.70176166 67:0.48810657 68:-0.11737089 69:0.59633919 70:-0.3214683 71:1 72:0.65913625 73:-0.081538462 74:0.53664303 75:0.27007299 76:0.50664137 77:0.051034483 78:0.17241379 79:-0.20528455 80:0.43219265 81:0.24183007 82:0.51882845 83:0.010507881 84:0.13642565 85:0.010460251 86:0.69040248 87:0.2833638 88:0.44715447 89:0.21908471 90:0.13642565 91:-0.045325444 92:-0.19626168 93:-1 94:0.040068493 95:0.20489297 96:-0.13109677 97:0.068676471 98:-0.009366092 99:0.041666667 100:-0.048547009 101:0.19177253 102:0.079648375 103:0.077844311 104:-0.056021291 105:0.039586919 106:-0.065516027 107:0.12335025 108:-0.0089757777 109:0.20705263 110:0.6740146 111:-1 112:0.21103683 113:0.66273058 114:0.74811111 115:0.054776119 116:0.64896861 117:0.54678363 118:0.35445946 119:0.69827586 120:0.59126437 121:-0.040066905 122:0.60565357 123:0.72069477 124:0.42268314 125:0.66147596 126:0.53805195 127:0.62496466 128:-0.28226478 129:-1 130:-0.065650211 131:0.67114501 132:0.38301282 133:0.58675006 134:-0.3266606 135:0.42639517 136:-0.10275516 137:0.71151821 138:0.34894693 139:0.63743911 140:0.11872146 141:0.61927562 142:-0.24406493 143:0.90689612 144:0.36248285 145:0.1204749 
32768 1:-0.25 2:0.70542636 3:0.35971223 4:0.057407407 5:0.38838476 6:-0.13642565 7:0.10654206 8:-0.15773354 9:0.25141777 10:0.23287671 11:0.26678766 12:0.12813909 13:0.032 14:0.2724758 15:0.12 16:0.12965051 17:0.25045372 18:0.32409972 19:-0.12426036 20:-0.61454545 21:0.0042674253 22:-0.062962354 23:-0.27777778 24:0.37127406 25:0.15808824 26:-0.17236364 27:0.011764706 28:-0.061538462 29:-0.27370507 30:0.36401945 31:-0.0012683457 32:-0.2802005 33:-0.020068259 34:0.01375 35:-0.30730479 36:0.49427651 37:0.89772727 38:0.26186292 39:0.44808011 40:0.351424 41:0.53518822 42:0.925 43:0.26742482 44:0.39702643 45:0.58139996 46:0.27469642 47:0.70394737 48:0.84979499 49:0.82732008 50:0.57959065 51:0.66584767 52:0.32128264 53:0.68266667 54:0.69575163 55:0.71686108 56:0.9760274 57:0.59622113 58:0.066272189 59:0.56338963 60:0.57452165 61:0.19682414 62:0.57009167 63:0.69533597 64:0.089516678 65:-0.074530363 66:0.66694301 67:0.013407145 68:0.59706062 69:0.59633919 70:0.076954192 71:-0.66662667 72:0.63897126 73:0.15846154 74:0.44917258 75:0.27007299 76:0.19734345 77:0.27586207 78:-0.028213166 79:0.11178862 80:0.077313055 81:0.24183007 82:0.19665272 83:0.29597198 84:0.12141883 85:0.22384937 86:0.25696594 87:0.2833638 88:0.16260163 89:0.38266796 90:0.11186903 91:-0.049349112 92:-0.65327103 93:-1 94:0.040068493 95:-0.27217125 96:-0.027870968 97:0.063676471 98:-0.11795846 99:0.041666667 100:-0.048547009 101:-0.28009679 102:0.11214704 103:0.071856287 104:-0.26360612 105:0.039586919 106:-0.062345896 107:-0.28274112 108:0.02791098 109:0.37189474 110:0.28467153 111:-1 112:0.19792896 113:0.73294185 114:0.77777778 115:0.28850746 116:0.36197309 117:0.54678363 118:0.33554054 119:0.77122016 120:0.55942529 121:0.23667604 122:0.49939856 123:0.72069477 124:0.39863928 125:0.77747687 126:0.51727273 127:0.45250212 128:0.52323064 129:-1 130:0.22596403 131:0.15194591 132:0.35304487 133:0.39834762 134:0.51086847 135:0.42639517 136:0.23860683 137:0.080859128 138:0.31743892 139:0.14752958 140:0.55296804 141:0.61927562 142:0.12564512 143:-0.60777516 144:0.32407407 145:0.56454012 
32768 1:-0.35138889 2:0.20708749 3:0.040767386 4:0.28518519 5:0.74228675 6:-0.43656207 7:-0.51775701 8:0.31087289 9:0.70888469 10:0.25605901 11:0.66243194 12:-0.23245332 13:-0.43466667 14:0.44951591 15:0.65090909 16:0.16572717 17:0.41923775 18:-0.21883657 19:0.70414201 20:-0.33818182 21:-0.16384327 22:-0.26023344 23:-0.55555556 24:0.50003219 25:0.59117647 26:-0.29949091 27:-0.82337662 28:-0.28034188 29:-0.67930937 30:0.37439222 31:0.50389563 32:-0.15321637 33:-0.84982935 34:-0.1675 35:-0.43073048 36:0.47138255 37:-0.34465909 38:0.84182777 39:0.50721438 40:0.237504 41:0.1904419 42:0.385 43:-0.37026442 44:0.61306902 45:0.80388658 46:0.3220873 47:0.22368421 48:0.6276535 49:-0.30136986 50:0.73809293 51:0.80501228 52:0.43292472 53:0.30666667 54:0.72843137 55:0.20858961 56:0.88013699 57:0.61091673 58:0.57440828 59:0.6504167 60:0.35498489 61:-0.32973402 62:0.8657372 63:0.67778656 64:0.53948264 65:0.87837484 66:0.4453886 67:-0.062883834 68:0.89283527 69:0.75994169 70:0.74820508 71:0.84447378 72:0.45338869 73:-0.53538462 74:0.26241135 75:0.12846715 76:0.24478178 77:0.74758621 78:-0.35423197 79:-0.74186992 80:0.25475285 81:0.15816993 82:0.26987448 83:0.48861646 84:-0.36152797 85:-0.23221757 86:0.39009288 87:0.82084095 88:0.2195122 89:0.55014606 90:-0.37107776 91:0.59763314 92:-0.31464174 93:0.28765714 94:-0.26027397 95:-0.74923547 96:0.22580645 97:0.875 98:-0.11714402 99:-0.50824653 100:-0.24683761 101:-0.33793103 102:0.10548748 103:0.54491018 104:-0.25136394 105:-0.88984509 106:-0.26734766 107:-0.44162437 108:0.13611214 109:-0.29210526 110:0.88029197 111:0.5933 112:0.39795517 113:0.15108189 114:0.31666667 115:-0.54477612 116:0.61811659 117:0.32017544 118:0.32743243 119:0.31923077 120:0.45402299 121:-0.54641527 122:0.82798717 123:0.6578511 124:0.3121078 125:0.33799744 126:0.31857143 127:-0.12496466 128:0.91740216 129:0.61347737 130:0.58744727 131:0.939499 132:-0.026442308 133:0.013975755 134:0.84774037 135:0.55007541 136:0.79483625 137:0.90755949 138:0.023588879 139:0.16492693 140:0.92442922 141:0.6625222 142:0.73801257 143:0.91283893 144:0.0054869684 145:0.13007205 
32768 1:0.11527778 2:0.88261351 3:0.57553957 4:-0.20925926 5:0.25771325 6:0.020463847 7:-0.17757009 8:0.58652374 9:-0.24007561 10:-0.3256059 11:0.30490018 12:0.032839665 13:0.21866667 14:0.72890733 15:-0.47272727 16:-0.47914318 17:0.3430127 18:0.22807018 19:-0.30970414 20:-0.18545455 21:0.010733221 22:-0.25069867 23:0.4537037 24:0.47428056 25:0.038235294 26:-0.15869091 27:0.59572193 28:-0.27282051 29:0.53778658 30:0.38476499 31:-0.089508969 32:-0.06566416 33:0.71112628 34:-0.16375 35:0.29471033 36:0.47823703 37:0.40534091 38:0.18101933 39:0.22731215 40:0.765888 41:-0.17839607 42:0.39 43:0.081839113 44:0.3010279 45:0.28395796 46:0.89826058 47:-0.14973684 48:0.60066435 49:0.20007718 50:0.30895334 51:0.27115479 52:0.73862456 53:0.004 54:0.67570806 55:0.58186638 56:0.053938356 57:0.59622113 58:0.34556213 59:0.62283354 60:0.36908359 61:0.22905915 62:0.081359817 63:0.66592885 64:0.14840027 65:0.82944517 66:0.35772021 67:0.51543984 68:0.19208002 69:0.75654005 70:0.11962787 71:0.79071163 72:0.4635251 73:-0.2 74:0.8108747 75:0.5620438 76:-0.089184061 77:0.28551724 78:0.065830721 79:0.0040650407 80:0.45500634 81:0.44575163 82:-0.33682008 83:0.38879159 84:0.02319236 85:0.16945607 86:0.79256966 87:-0.089579525 88:-0.39837398 89:0.46835443 90:0.10095498 91:-0.27218935 92:-0.17133956 93:0.23428571 94:-0.26027397 95:0.58409786 96:0.17419355 97:-0.21573529 98:-0.046016017 99:0.38151042 100:-0.2434188 101:0.29921355 102:0.10548748 103:-0.12724551 104:-0.13027279 105:0.7383821 106:-0.2610074 107:0.2893401 108:0.10660273 109:0.53947368 110:0.38978102 111:0.4767 112:0.98256652 113:-0.21069764 114:0.32222222 115:0.48014925 116:0.31748879 117:-0.028216374 118:0.91391892 119:0.027453581 120:0.45402299 121:0.48756938 122:0.38331997 123:0.18303221 124:0.89827598 125:-0.0035356955 126:0.27961039 127:0.37277354 128:0.073105745 129:0.60874486 130:0.37502776 131:0.87483748 132:-0.0040064103 133:0.52127249 134:0.43827722 135:0.53589744 136:0.4094611 137:0.81238155 138:0.047177759 139:0.49269311 140:0.24634703 141:0.65418179 142:0.27465516 143:0.85737279 144:0.10185185 145:-0.26694087 
32768 1:0.30555556 2:0.32225914 3:0.17505995 4:0.1537037 5:-0.33212341 6:-0.9781719 7:0.42056075 8:0.25880551 9:0.2173913 10:0.14857745 11:-0.33212341 12:-0.86735351 13:0.536 14:0.37759336 15:0.10545455 16:0.13866967 17:-0.33212341 18:-0.75069252 19:-0.12426036 20:0.0036363636 21:-0.073322126 22:-0.14515864 23:-0.064814815 24:0.28333226 25:0.20588235 26:0.079563636 27:-0.047211612 28:-0.16478632 29:-0.12737051 30:0.29231767 31:0.10074289 32:0.088387636 33:-0.095699659 34:-0.10175 35:-0.15617128 36:0.51141271 37:0.64772727 38:0.60984183 39:0.23519672 40:0.8272 41:0.99018003 42:0.82 43:-0.15816647 44:0.37389868 45:0.45845727 46:0.98227765 47:0.99013158 48:0.88924067 49:0.1495273 50:0.59530507 51:0.49130221 52:0.95844588 53:0.99 54:0.54411765 55:0.044538706 56:0.60873288 57:0.3650105 58:-0.62426035 59:-0.11129139 60:0.58408862 61:0.14998015 62:0.40870894 63:0.20158103 64:-0.94503063 65:-0.10283967 66:0.63005181 67:0.26286653 68:0.54439682 69:0.37928242 70:-1 71:-0.51086043 72:0.56089934 73:0.52307692 74:0.39952719 75:0.37226277 76:0.20303605 77:-0.25931034 78:-0.80564263 79:0.40447154 80:0.22940431 81:0.17385621 82:0.22175732 83:-0.31348511 84:-0.9781719 85:0.47698745 86:0.58823529 87:-0.023765996 88:0.20528455 89:-0.19571568 90:-0.9781719 91:-0.15976331 92:0.076323987 93:0.18857143 94:-0.16780822 95:-0.10507645 96:-0.2 97:0.058823529 98:0.079136691 99:-0.056857639 100:-0.16102564 101:-0.11796733 102:-0.13638785 103:0.1242515 104:0.023020625 105:-0.046471601 106:-0.17153927 107:-0.088832487 108:-0.19660642 109:0.30526316 110:0.52189781 111:0.6 112:0.87114956 113:0.9786813 114:0.83888889 115:0.19895522 116:0.53309417 117:0.26608187 118:0.93202703 119:0.9867374 120:0.86206897 121:-0.01680225 122:0.45408982 123:0.58854849 124:0.96036726 125:0.77988415 126:0.86142857 127:0.054283291 128:0.56452956 129:0.39146091 130:-0.58359855 131:0.20308572 132:0.45833333 133:-0.029418578 134:0.51673238 135:0.14630468 136:-0.83295789 137:-0.074120868 138:0.40690817 139:0.011830202 140:0.44611872 141:0.27314851 142:-0.85586938 143:0.22520738 144:0.43175583 145:-0.68171874 
17231.07714326508 1:-0.70833333 2:-0.57918051 3:0.81534772 4:0.19074074 5:0.11615245 6:-0.1159618 7:-0.20560748 8:-0.48851455 9:0.64461248 10:0.25605901 11:-0.079854809 12:-0.080489375 13:-0.21866667 14:-0.10096819 15:-2.220446e-16 16:0.13641488 17:-0.043557169 18:0.23915051 19:-0.088757396 20:-0.13454545 21:-0.50006466 22:0.0027946737 23:-0.19444444 24:0.75111054 25:0.16911765 26:-0.0036363636 27:-0.049350649 28:-0.0017094017 29:-0.1887914 30:0.88784441 31:0.02826599 32:-0.029573935 33:0.65078498 34:0.03875 35:-0.22921914 36:0.61464117 37:0.63636364 38:0.50087873 39:-0.24576204 40:0.3536 41:0.52864157 42:-0.285 43:0.42789367 44:-0.069199706 45:-0.23160817 46:0.35175583 47:0.68644737 48:-0.25260809 49:0.9332433 50:0.21757687 51:-0.81405405 52:0.42863079 53:0.67333333 54:0.088126362 55:0.32873807 56:0.69863014 57:0.43946816 58:0.49674556 59:0.23150675 60:0.29154079 61:0.48741564 62:0.70416348 63:0.31810277 64:0.52093261 65:0.2214941 66:0.48352332 67:0.34815327 68:0.63992652 69:0.52198915 70:0.6654869 71:-0.39877595 72:0.51280531 73:-0.18461538 74:-0.85815603 75:0.27007299 76:0.23529412 77:0.095172414 78:0.055799373 79:-0.34146341 80:-0.35361217 81:0.57385621 82:0.22175732 83:0.066549912 84:0.058663029 85:-0.089958159 86:-0.052631579 87:0.56855576 88:0.18495935 89:0.028237585 90:0.090040928 91:-0.049349112 92:-0.14423676 93:-1 94:0.05 95:-0.18654434 96:0.69470968 97:0.063676471 98:0.012352382 99:-0.13194444 100:0.0061538462 101:-0.1954023 102:0.3460309 103:0.05988024 104:-0.029407851 105:0.22030981 106:-0.0017611835 107:-0.21040609 108:0.28365917 109:0.45263158 110:0.66423358 111:-1 112:0.24288898 113:0.665922 114:-0.59633333 115:0.40298507 116:0.3296861 117:-0.43274854 118:0.39905405 119:0.70159151 120:-0.081724138 121:0.4465141 122:0.0022052927 123:-0.30924326 124:0.48266068 125:0.81629429 126:-0.30350649 127:0.62496466 128:0.46827644 129:-1 130:0.57738139 131:0.35390483 132:0.015384615 133:0.58675006 134:0.47083207 135:0.44841629 136:0.71686016 137:0.32617393 138:0.12030329 139:0.5295755 140:0.62694064 141:0.44628929 142:0.65900347 143:-0.32796831 144:0.19907407 145:0.0045797964 
32768 1:-0.22222222 2:-0.45736434 3:0.30455635 4:1 5:-0.32123412 6:-0.44611187 7:-0.60747664 8:-0.5957121 9:0.71266541 10:0.78714436 11:-0.32123412 12:-0.19510625 13:-0.70933333 14:-0.39419087 15:0.61454545 16:0.53100338 17:-0.32123412 18:-0.039704524 19:0.4260355 20:0.71636364 21:-0.0086641666 22:-0.8628966 23:-0.095185185 24:0.30470611 25:0.77205882 26:0.64887273 27:-0.2223071 28:-0.88205128 29:-0.17378998 30:0.35170178 31:0.58851241 32:0.74235589 33:-0.16395904 34:-0.58575 35:-0.19748111 36:0.42847351 37:0.073863636 38:0.60281195 39:0.40345344 40:0.1936 41:0.5800982 42:0.6867 43:-0.13723575 44:0.1273862 45:0.61451517 46:0.54381359 47:0.57802632 48:0.65049048 49:0.53694771 50:0.33475604 51:0.56265356 52:0.53445529 53:0.5724 54:0.76252723 55:0.58218452 56:0.7114726 57:-0.30650805 58:0.68091716 59:0.67637731 60:0.6878147 61:0.44851131 62:0.60847976 63:-0.46529644 64:0.66456773 65:0.83031892 66:0.77336788 67:0.65193322 68:0.75790978 69:-0.32744796 70:0.76418242 71:0.77079083 72:0.70421092 73:-0.43076923 74:-0.46335697 75:0.32408759 76:1 77:-0.16413793 78:-0.63009404 79:-0.99796748 80:-0.46007605 81:0.077124183 82:0.86610879 83:-0.26269702 84:-0.44611187 85:-0.79288703 86:-0.47368421 87:0.7952468 88:0.75813008 89:0.043816943 90:-0.44611187 91:0.4260355 92:0.67601246 93:0.28 94:-0.79006849 95:-0.14103976 96:-0.2 97:0.74014706 98:0.58327677 99:0.012586806 100:-0.81196581 101:-0.15039322 102:-0.092168354 103:0.71257485 104:0.74424484 105:-0.14492255 106:-0.89045439 107:-0.16497462 108:-0.15578507 109:0.14210526 110:0.48423358 111:0.5467 112:0.41892778 113:0.58843429 114:0.77222222 115:0.18910448 116:0.30511211 117:0.50292398 118:0.34905405 119:0.62108753 120:0.70885057 121:0.29445754 122:0.13532478 123:0.59343633 124:0.49032301 125:0.37410667 126:0.68831169 127:0.51229856 128:0.70324729 129:0.024691358 130:0.68055658 131:0.74239404 132:0.52564103 133:0.5289939 134:0.86654534 135:-0.72518854 136:0.83711662 137:0.79806275 138:0.58045493 139:0.60334029 140:0.74634703 141:-0.32319098 142:0.83541334 143:0.70706946 144:0.60836763 145:-0.92526472 
32768 1:0.38194444 2:0.31339978 3:0.81534772 4:0.27037037 5:-0.047186933 6:0.13642565 7:0.18691589 8:0.099540582 9:0.76937618 10:0.32982086 11:-0.21778584 12:0.18480361 13:0.32266667 14:0.33333333 15:-0.20727273 16:0.24464487 17:-0.21778584 18:0.34441367 19:-0.30177515 20:-0.71636364 21:-0.50006466 22:0.80009864 23:0.037037037 24:-1 25:-0.036764706 26:-0.5648 27:-0.23269672 28:0.86188034 29:-0.035380696 30:-1 31:-0.084979163 32:-0.60868839 33:0.57679181 34:0.625 35:-0.074307305 36:-1 37:0.4375 38:0.23725835 39:-0.24576204 40:-0.6096 41:0.38330606 42:-1 43:0.46975511 44:0.38968429 45:-0.54233591 46:-0.74440433 47:0.56578947 48:-1 49:0.82828478 50:0.62653992 51:-0.95184275 52:-0.82353349 53:0.56 54:-1 55:0.73117709 56:0.041952055 57:0.43946816 58:0.39127219 59:0.01556162 60:-1 61:0.011830091 62:0.43525592 63:0.54782609 64:0.35074881 65:0.22953255 66:-1 67:0.0009514748 68:0.64462135 69:0.34737183 70:0.40539994 71:-0.054362174 72:-1 73:0.21076923 74:0.41371158 75:0.27007299 76:0.35483871 77:-0.070344828 78:0.31034483 79:0.2195122 80:0.046894803 81:0.22352941 82:0.30753138 83:-0.14360771 84:0.21418827 85:0.26359833 86:0.42724458 87:0.13345521 88:0.30284553 89:0.0593963 90:0.25511596 91:-0.25053254 92:-0.67601246 93:-1 94:0.61986301 95:-0.0081957187 96:-0.67741935 97:-0.052941176 98:-0.2156916 99:0.92404514 100:0.79316239 101:-0.018995765 102:-0.57378796 103:-0.13772455 104:-0.44723886 105:0.64681583 106:0.81718915 107:-0.046192893 108:-0.17619575 109:0.63157895 110:0.38394161 111:-1 112:-0.72801153 113:0.50635093 114:0.033333333 115:0.53731343 116:0.46134529 117:-0.77880117 118:-0.67959459 119:0.53580902 120:0.33333333 121:0.7521478 122:0.63231756 123:-0.55119141 124:-0.73261114 125:0.43443918 126:-0.088831169 127:0.040571106 128:0.33555371 129:-1 130:0.72984975 131:0.10115281 132:-0.18397436 133:0.15419659 134:0.52866242 135:0.76666667 136:0.5397678 137:0.019161929 138:-0.23083404 139:-0.25243563 140:0.66347032 141:0.63688316 142:0.53814394 143:0.039494862 144:0.14677641 145:-0.44975351 
32768 1:0.44444444 2:-0.45736434 3:0.67625899 4:-0.0018518519 5:0.33393829 6:0.53888131 7:0.28598131 8:-0.51914242 9:0.98487713 10:-0.097997893 11:0.35934664 12:0.41146169 13:0.38933333 14:0.04011065 15:0.76 16:-0.062006764 17:0.34119782 18:0.62696214 19:-0.31751479 20:0.71636364 21:-0.086253718 22:-0.1615979 23:-0.13574074 24:0.18457478 25:0.032352941 26:0.64596364 27:-0.23269672 28:-0.18153846 29:-0.17690348 30:0.57147488 31:-0.094038775 32:0.41052632 33:-0.20136519 34:-0.106 35:-0.13350126 36:0.60847214 37:0.54920455 38:0.60281195 39:-0.16691634 40:0.720192 41:0.49590835 42:-0.13 43:0.28835554 44:0.19695301 45:-0.11263137 46:0.86176567 47:0.52960526 48:-0.20901022 49:0.63187343 50:0.40828402 51:-0.079508599 52:0.67684743 53:0.55466667 54:-0.13398693 55:0.79077413 56:0.7114726 57:0.44856543 58:-0.15414201 59:0.4567446 60:0.45468278 61:0.81024216 62:0.74025974 63:0.51003953 64:-0.10704561 65:0.62638707 66:0.54777202 67:0.48153274 68:0.79220249 69:0.64995545 70:-0.073111538 71:0.41869675 72:0.56003666 73:0.29692308 74:-0.42316785 75:0.64525547 76:0.10056926 77:0.37103448 78:0.54231975 79:0.23373984 80:-0.23954373 81:0.18954248 82:-0.054393305 83:0.38178634 84:0.32742156 85:0.32008368 86:-0.52012384 87:0.69652651 88:-0.1199187 89:0.46640701 90:0.42564802 91:-0.28106509 92:0.66978193 93:0.26857143 94:-0.17123288 95:-0.19461774 96:-0.40645161 97:-0.22544118 98:0.34410208 99:-0.13194444 100:-0.16136752 101:-0.07707199 102:0.23867874 103:-0.13473054 104:0.58110446 105:-0.21170396 106:-0.17435717 107:-0.14213198 108:-0.15406369 109:0.63157895 110:0.58248175 111:0.1433 112:0.83575829 113:0.44890534 114:-0.25555556 115:0.73134328 116:0.31300448 117:0.010672515 118:0.85851351 119:0.54323607 120:-0.31609195 121:0.73846271 122:0.41238974 123:0.071310116 124:0.8681551 125:0.61784398 126:-0.29181818 127:0.80025445 128:0.85179017 129:0.53631687 130:-0.14188439 131:0.71188351 132:0.13221154 133:0.32159679 134:0.64856941 135:0.42986425 136:-0.10258187 137:0.58475469 138:0.19039596 139:0.034446764 140:0.76689498 141:0.54977218 142:-0.099746645 143:0.47356692 144:0.17524005 145:0.10343922 
